{"learner":{"attributes":{"scikit_learn":"{\"_estimator_type\": \"classifier\"}"},"feature_names":[],"feature_types":[],"gradient_booster":{"model":{"cats":{"enc":[],"feature_segments":[],"sorted_idx":[]},"gbtree_model_param":{"num_parallel_tree":"1","num_trees":"100"},"iteration_indptr":[0,1,2,3,4,5,6,7,8,9,10,11,12,13,14,15,16,17,18,19,20,21,22,23,24,25,26,27,28,29,30,31,32,33,34,35,36,37,38,39,40,41,42,43,44,45,46,47,48,49,50,51,52,53,54,55,56,57,58,59,60,61,62,63,64,65,66,67,68,69,70,71,72,73,74,75,76,77,78,79,80,81,82,83,84,85,86,87,88,89,90,91,92,93,94,95,96,97,98,99,100],"tree_info":[0,0,0,0,0,0,0,0,0,0,0,0,0,0,0,0,0,0,0,0,0,0,0,0,0,0,0,0,0,0,0,0,0,0,0,0,0,0,0,0,0,0,0,0,0,0,0,0,0,0,0,0,0,0,0,0,0,0,0,0,0,0,0,0,0,0,0,0,0,0,0,0,0,0,0,0,0,0,0,0,0,0,0,0,0,0,0,0,0,0,0,0,0,0,0,0,0,0,0,0],"trees":[{"base_weights":[6.7564643E-9,9.386535E-1,-3.6788952E-1,-3.1375492E-1,1.306503E0,-1.213818E0,-2.3074485E-2,1.0089402E0,-1.0601366E0,1.5450277E0,-1.4063077E-1,-1.9165562E-1,-1.6271315E0,3.0305693E-1,-7.7961403E-1,-6.892828E-1,1.5337245E0,-1.6741817E0,4.594033E-1,1.8566859E0,1.1802379E0,-1.4732947E0,1.0979513E0,5.337289E-1,-1.241542E0,-1.0524772E0,-1.8587832E0,1.6280229E0,1.6675812E-1,-1.4132336E0,6.586245E-1,1.3336445E-1,-1.4541819E0,-1.11088894E-1,1.6346766E0,-1.8640136E0,-8.5676825E-1,1.4786377E0,-8.0664563E-1,1.2408861E0,1.9011534E0,1.696731E0,7.72114E-1,-1.7773905E0,3.4667255E-4,4.7096473E-1,1.480384E0,1.1388555E0,-9.9961543E-1,3.814018E-4,-1.8550314E0,-6.076064E-1,-1.6186562E0,-5.451273E-1,-1.8795629E0,-9.9973336E-2,1.7050105E0,-7.2460335E-1,3.2097706E-1,-1.6285996E0,1.0257811E-1,-9.683625E-1,1.2461097E0,-1.6919488E-1,2.2244446E-2,4.289143E-2,1.814959E-1,-1.8961588E-1,2.000034E-5,8.574667E-2,-1.5648523E-1,2.4000406E-5,1.6194223E-1,3.384673E-5,-1.3139315E-1,-4.6126153E-2,1.4860915E-1,9.476843E-2,1.912679E-1,8.1854545E-2,1.789869E-1,2.508149E-3,1.122057E-1,-2.2200001E-2,-1.834324E-1,-1.1997067E-1,9.476843E-2,9.234462E-2,-7.9968E-2,-5.452E-2,1.6562968E-1,-1.575158E-2,1.6386895E-1,-1.4938714E-1,1.23841904E-1,8.238981E-2,-1.0765641E-1,-8.8857785E-2,-1.9206633E-1,1.6705556E-2,-1.5996146E-1,-1.9113766E-1,-8.066457E-2,-1.4663734E-1,9.093455E-2,-2.2200001E-2,-1.8867612E-1,-1.5356923E-2,1.7598887E-1,-1.1864176E-1,7.003867E-2,-1.0541788E-3,9.6022926E-2,-9.169053E-2,-1.7375502E-1,1.636743E-1,-1.749625E-1,1.3106897E-1,-1.5724312E-1,1.5424822E-1,-3.85593E-2],"categories":[],"categories_nodes":[],"categories_segments":[],"categories_sizes":[],"default_left":[0,0,0,0,0,0,0,0,0,0,0,0,0,0,0,0,0,0,0,0,0,0,0,0,0,0,0,0,0,0,0,0,0,0,0,0,0,0,0,0,0,0,0,0,0,0,0,0,0,0,0,0,0,0,0,0,0,0,0,0,0,0,0,0,0,0,0,0,0,0,0,0,0,0,0,0,0,0,0,0,0,0,0,0,0,0,0,0,0,0,0,0,0,0,0,0,0,0,0,0,0,0,0,0,0,0,0,0,0,0,0,0,0,0,0,0,0,0,0,0,0],"id":0,"left_children":[1,3,5,7,9,11,13,15,17,19,21,23,25,27,29,31,33,35,37,39,41,43,45,47,49,51,53,55,57,59,61,-1,63,-1,65,67,69,71,73,75,77,79,81,83,85,87,89,91,93,95,97,99,101,103,105,-1,107,109,111,113,115,117,119,-1,-1,-1,-1,-1,-1,-1,-1,-1,-1,-1,-1,-1,-1,-1,-1,-1,-1,-1,-1,-1,-1,-1,-1,-1,-1,-1,-1,-1,-1,-1,-1,-1,-1,-1,-1,-1,-1,-1,-1,-1,-1,-1,-1,-1,-1,-1,-1,-1,-1,-1,-1,-1,-1,-1,-1,-1,-1],"loss_changes":[8.639927E2,3.2497156E2,5.242826E2,1.5976772E2,1.882525E2,2.1958563E2,3.1555887E2,5.3192406E1,9.71082E1,5.098706E1,1.3036548E2,1.15659904E2,4.7364502E1,1.6113196E2,3.5200766E2,2.4375721E1,1.3830017E1,9.846848E0,4.0549957E1,4.500305E0,4.4695526E1,1.7029488E1,9.133778E0,8.464647E1,4.7238937E1,2.6408066E1,6.147766E0,1.8546432E1,1.1178527E2,8.7575195E1,1.1447264E2,0E0,4.7614746E0,0E0,8.731819E0,3.535965E0,2.045951E1,3.5899506E0,5.83399E0,8.928646E0,7.3413086E-1,6.3461E0,3.232244E1,2.3822174E0,9.663361E0,1.0512496E1,9.811165E0,4.2376198E1,3.0610245E1,1.9954954E1,9.256897E-1,4.829666E1,9.68914E0,8.703041E0,2.6624146E0,0E0,8.557388E0,7.9800644E1,1.467676E2,1.6589844E1,1.00187965E2,4.6115494E1,4.2909058E1,0E0,0E0,0E0,0E0,0E0,0E0,0E0,0E0,0E0,0E0,0E0,0E0,0E0,0E0,0E0,0E0,0E0,0E0,0E0,0E0,0E0,0E0,0E0,0E0,0E0,0E0,0E0,0E0,0E0,0E0,0E0,0E0,0E0,0E0,0E0,0E0,0E0,0E0,0E0,0E0,0E0,0E0,0E0,0E0,0E0,0E0,0E0,0E0,0E0,0E0,0E0,0E0,0E0,0E0,0E0,0E0,0E0,0E0],"parents":[2147483647,0,0,1,1,2,2,3,3,4,4,5,5,6,6,7,7,8,8,9,9,10,10,11,11,12,12,13,13,14,14,15,15,16,16,17,17,18,18,19,19,20,20,21,21,22,22,23,23,24,24,25,25,26,26,27,27,28,28,29,29,30,30,32,32,34,34,35,35,36,36,37,37,38,38,39,39,40,40,41,41,42,42,43,43,44,44,45,45,46,46,47,47,48,48,49,49,50,50,51,51,52,52,53,53,54,54,56,56,57,57,58,58,59,59,60,60,61,61,62,62],"right_children":[2,4,6,8,10,12,14,16,18,20,22,24,26,28,30,32,34,36,38,40,42,44,46,48,50,52,54,56,58,60,62,-1,64,-1,66,68,70,72,74,76,78,80,82,84,86,88,90,92,94,96,98,100,102,104,106,-1,108,110,112,114,116,118,120,-1,-1,-1,-1,-1,-1,-1,-1,-1,-1,-1,-1,-1,-1,-1,-1,-1,-1,-1,-1,-1,-1,-1,-1,-1,-1,-1,-1,-1,-1,-1,-1,-1,-1,-1,-1,-1,-1,-1,-1,-1,-1,-1,-1,-1,-1,-1,-1,-1,-1,-1,-1,-1,-1,-1,-1,-1,-1],"split_conditions":[-3.8380262E-1,-5.022791E-1,-5.523983E-1,-1.423924E0,-4.364178E-2,-2.695798E-1,8.6866754E-1,-2.2585628E0,1.19521946E-1,-1.3063444E0,2.0863803E-1,1.5356617E0,-4.2744022E-2,-2.34788E0,-1.2596682E0,-3.8906348E0,-3.824226E0,-6.661607E-1,1.337529E0,9.764355E-3,-4.3498105E-1,-1.809046E0,1.3641313E0,8.6866754E-1,-1.2191023E0,1.7597622E0,-4.321197E0,-2.3047361E0,-2.353896E0,-4.2744022E-2,-1.6280347E0,1.3336445E-1,-8.0996776E-1,-1.11088894E-1,-7.968279E-1,2.9340928E0,2.1132405E-1,-4.0926642E0,2.4816718E0,-1.9639405E0,-2.4221456E0,1.8483146E-1,2.2258873E-1,-3.3861715E-1,-3.812087E-1,1.1296376E0,-3.824226E0,2.587496E-1,1.837719E0,-1.9205836E0,1.7745543E0,3.835094E-2,-1.6481348E0,6.197505E-1,-4.652718E0,-9.9973336E-2,-1.9523878E0,1.4920572E0,1.2710816E0,-1.0879717E0,1.651355E0,-1.7652276E0,1.2288393E0,-1.6919488E-1,2.2244446E-2,4.289143E-2,1.814959E-1,-1.8961588E-1,2.000034E-5,8.574667E-2,-1.5648523E-1,2.4000406E-5,1.6194223E-1,3.384673E-5,-1.3139315E-1,-4.6126153E-2,1.4860915E-1,9.476843E-2,1.912679E-1,8.1854545E-2,1.789869E-1,2.508149E-3,1.122057E-1,-2.2200001E-2,-1.834324E-1,-1.1997067E-1,9.476843E-2,9.234462E-2,-7.9968E-2,-5.452E-2,1.6562968E-1,-1.575158E-2,1.6386895E-1,-1.4938714E-1,1.23841904E-1,8.238981E-2,-1.0765641E-1,-8.8857785E-2,-1.9206633E-1,1.6705556E-2,-1.5996146E-1,-1.9113766E-1,-8.066457E-2,-1.4663734E-1,9.093455E-2,-2.2200001E-2,-1.8867612E-1,-1.5356923E-2,1.7598887E-1,-1.1864176E-1,7.003867E-2,-1.0541788E-3,9.6022926E-2,-9.169053E-2,-1.7375502E-1,1.636743E-1,-1.749625E-1,1.3106897E-1,-1.5724312E-1,1.5424822E-1,-3.85593E-2],"split_indices":[2,8,1,7,3,7,3,5,5,2,1,8,4,4,9,7,6,5,4,8,4,9,1,3,5,2,3,0,6,4,5,0,8,0,3,1,4,6,4,3,1,8,1,8,5,6,6,2,2,3,8,3,0,6,6,0,8,1,4,8,8,7,7,0,0,0,0,0,0,0,0,0,0,0,0,0,0,0,0,0,0,0,0,0,0,0,0,0,0,0,0,0,0,0,0,0,0,0,0,0,0,0,0,0,0,0,0,0,0,0,0,0,0,0,0,0,0,0,0,0,0],"split_type":[0,0,0,0,0,0,0,0,0,0,0,0,0,0,0,0,0,0,0,0,0,0,0,0,0,0,0,0,0,0,0,0,0,0,0,0,0,0,0,0,0,0,0,0,0,0,0,0,0,0,0,0,0,0,0,0,0,0,0,0,0,0,0,0,0,0,0,0,0,0,0,0,0,0,0,0,0,0,0,0,0,0,0,0,0,0,0,0,0,0,0,0,0,0,0,0,0,0,0,0,0,0,0,0,0,0,0,0,0,0,0,0,0,0,0,0,0,0,0,0,0],"sum_hessian":[2.5E3,7.035E2,1.7965E3,1.5975E2,5.4375E2,5.195E2,1.277E3,5.75E1,1.0225E2,4.6675E2,7.7E1,1.5E2,3.695E2,8.9275E2,3.8425E2,1.35E1,4.4E1,7.275E1,2.95E1,2.495E2,2.1725E2,3.7E1,4E1,8.9E1,6.1E1,1.0775E2,2.6175E2,8.225E1,8.105E2,2.6675E2,1.175E2,3.5E0,1E1,1.25E0,4.275E1,5.8E1,1.475E1,1.625E1,1.325E1,1.875E1,2.3075E2,9.45E1,1.2275E2,3.05E1,6.5E0,1.6E1,2.4E1,6.4E1,2.5E1,2.05E1,4.05E1,6.15E1,4.625E1,4.5E0,2.5725E2,2E0,8.025E1,1.19E2,6.915E2,2.335E2,3.325E1,3.1E1,8.65E1,8.75E0,1.25E0,6E0,3.675E1,5.7E1,1E0,4.25E0,1.05E1,1.5E0,1.475E1,5.5E0,7.75E0,2.25E0,1.65E1,3.75E0,2.27E2,1E1,8.45E1,3.95E1,8.325E1,1.25E0,2.925E1,2.75E0,3.75E0,1.2E1,4E0,1.75E0,2.225E1,1.8E1,4.6E1,2.075E1,4.25E0,1.175E1,8.75E0,3.5E0,3.7E1,3.5E1,2.65E1,3.3E1,1.325E1,2.75E0,1.75E0,1.25E0,2.56E2,2.25E0,7.8E1,9E1,2.9E1,4.56E2,2.355E2,3.225E1,2.0125E2,1.825E1,1.5E1,6.25E0,2.475E1,7.325E1,1.325E1],"tree_param":{"num_deleted":"0","num_feature":"10","num_nodes":"121","size_leaf_vector":"1"}},{"base_weights":[-1.9094352E-4,8.602278E-1,-3.2998663E-1,-3.5037196E-1,1.1829628E0,-1.0877163E0,-1.02724E-2,1.1792641E0,-9.235565E-1,1.3914351E0,-1.405133E-1,-3.728219E-2,-1.422266E0,3.2137844E-1,-6.261346E-1,-4.9322456E-1,1.5592533E0,-1.5859867E0,3.5129744E-1,1.6760346E0,1.0565772E0,-1.2369406E0,1.0944921E0,5.906437E-1,-1.1802446E0,-9.257499E-1,-1.6487465E0,5.731711E-1,-3.0610442E-1,-1.2163025E0,5.5448705E-1,9.880205E-2,-1.2147937E0,-2.4294687E-2,1.6374624E0,-1.7165728E-1,-1.0302372E0,1.2504958E0,-9.3199545E-1,5.5173844E-1,1.6952677E0,1.663889E0,7.307133E-1,-1.4653239E0,3.1598982E-1,6.574702E-1,1.5721184E0,1.1489389E0,-8.9829946E-1,1.9622105E-1,-1.7196307E0,-7.0882016E-1,-1.7169641E0,-1.0303028E0,-1.7268199E0,7.2220135E-1,-4.0274963E-1,-1.3220048E0,2.7129173E-1,-1.4846444E0,-2.874793E-1,-9.3992317E-1,1.0642065E0,-3.187339E-2,-1.4420393E-1,6.577349E-2,1.74435E-1,3.04334E-2,-1.4639741E-1,-4.010211E-3,1.4141613E-1,-2.7692545E-2,-1.2985167E-1,-6.943231E-2,1.3997965E-1,9.6818544E-2,1.7311615E-1,8.547978E-2,1.7028938E-1,3.328485E-2,1.3294697E-1,-9.386506E-3,-1.5553904E-1,8.202287E-2,-7.209604E-2,1.266451E-1,-1.2504625E-3,6.4922996E-2,1.6547154E-1,9.106476E-3,1.554631E-1,1.1264987E-1,-1.4305413E-1,-1.4081529E-1,6.674636E-2,-1.7466109E-1,-5.629483E-2,-9.593663E-3,-1.4190975E-1,-1.7496857E-1,-5.731804E-2,-1.2722312E-1,5.2416544E-2,-9.363806E-2,-1.751131E-1,-2.012996E-2,1.0067757E-1,1.4531964E-1,-1.0131227E-1,-1.5665667E-1,8.129545E-2,-3.8097516E-2,1.161801E-1,-1.5111473E-1,5.2465864E-2,1.4029132E-1,-1.562379E-1,1.1349156E-1,-1.5220621E-1,1.6915125E-1,3.5668734E-2],"categories":[],"categories_nodes":[],"categories_segments":[],"categories_sizes":[],"default_left":[0,0,0,0,0,0,0,0,0,0,0,0,0,0,0,0,0,0,0,0,0,0,0,0,0,0,0,0,0,0,0,0,0,0,0,0,0,0,0,0,0,0,0,0,0,0,0,0,0,0,0,0,0,0,0,0,0,0,0,0,0,0,0,0,0,0,0,0,0,0,0,0,0,0,0,0,0,0,0,0,0,0,0,0,0,0,0,0,0,0,0,0,0,0,0,0,0,0,0,0,0,0,0,0,0,0,0,0,0,0,0,0,0,0,0,0,0,0,0,0,0],"id":1,"left_children":[1,3,5,7,9,11,13,15,17,19,21,23,25,27,29,31,33,35,37,39,41,43,45,47,49,51,53,55,57,59,61,-1,63,-1,65,-1,67,69,71,73,75,77,79,81,83,85,87,89,91,93,95,97,99,101,103,105,107,109,111,113,115,117,119,-1,-1,-1,-1,-1,-1,-1,-1,-1,-1,-1,-1,-1,-1,-1,-1,-1,-1,-1,-1,-1,-1,-1,-1,-1,-1,-1,-1,-1,-1,-1,-1,-1,-1,-1,-1,-1,-1,-1,-1,-1,-1,-1,-1,-1,-1,-1,-1,-1,-1,-1,-1,-1,-1,-1,-1,-1,-1],"loss_changes":[7.0651184E2,2.6995926E2,4.3602783E2,1.2907945E2,1.505426E2,1.8763568E2,2.5895078E2,2.6336601E1,9.070778E1,4.3101685E1,1.0299517E2,9.402431E1,4.4021606E1,1.3037415E2,3.0986722E2,9.972932E0,5.052292E0,3.342804E0,4.4230904E1,4.531616E0,4.213083E1,1.4731632E1,6.445465E0,7.135321E1,3.4818474E1,2.095208E1,1.1589905E1,8.587332E1,1.391629E2,7.339212E1,1.14179054E2,0E0,7.5555706E-1,0E0,2.180519E0,0E0,9.650099E0,4.7821198E0,3.4697685E0,7.031983E0,4.798462E0,9.334259E-1,3.3940193E1,4.2082596E0,3.7184858E0,8.351146E0,1.7594528E-1,2.6451614E1,2.7077969E1,1.1504113E1,6.125641E-2,4.4733032E1,1.0978699E-2,1.3271004E1,3.0562134E0,1.344526E2,9.0506966E1,4.6137238E1,8.856329E1,1.3016724E1,1.4793303E2,4.8012444E1,4.8777695E1,0E0,0E0,0E0,0E0,0E0,0E0,0E0,0E0,0E0,0E0,0E0,0E0,0E0,0E0,0E0,0E0,0E0,0E0,0E0,0E0,0E0,0E0,0E0,0E0,0E0,0E0,0E0,0E0,0E0,0E0,0E0,0E0,0E0,0E0,0E0,0E0,0E0,0E0,0E0,0E0,0E0,0E0,0E0,0E0,0E0,0E0,0E0,0E0,0E0,0E0,0E0,0E0,0E0,0E0,0E0,0E0,0E0,0E0],"parents":[2147483647,0,0,1,1,2,2,3,3,4,4,5,5,6,6,7,7,8,8,9,9,10,10,11,11,12,12,13,13,14,14,15,15,16,16,17,17,18,18,19,19,20,20,21,21,22,22,23,23,24,24,25,25,26,26,27,27,28,28,29,29,30,30,32,32,34,34,36,36,37,37,38,38,39,39,40,40,41,41,42,42,43,43,44,44,45,45,46,46,47,47,48,48,49,49,50,50,51,51,52,52,53,53,54,54,55,55,56,56,57,57,58,58,59,59,60,60,61,61,62,62],"right_children":[2,4,6,8,10,12,14,16,18,20,22,24,26,28,30,32,34,36,38,40,42,44,46,48,50,52,54,56,58,60,62,-1,64,-1,66,-1,68,70,72,74,76,78,80,82,84,86,88,90,92,94,96,98,100,102,104,106,108,110,112,114,116,118,120,-1,-1,-1,-1,-1,-1,-1,-1,-1,-1,-1,-1,-1,-1,-1,-1,-1,-1,-1,-1,-1,-1,-1,-1,-1,-1,-1,-1,-1,-1,-1,-1,-1,-1,-1,-1,-1,-1,-1,-1,-1,-1,-1,-1,-1,-1,-1,-1,-1,-1,-1,-1,-1,-1,-1,-1,-1,-1],"split_conditions":[-4.0866625E-1,-6.3771856E-1,-5.066722E-1,-2.0334058E0,3.835094E-2,-6.109846E-1,6.3866556E-1,-2.5419922E0,-1.9081062E-1,-1.3063444E0,4.403918E-1,1.6138536E0,-4.2744022E-2,1.3805352E-1,-1.2596682E0,-3.8906348E0,-3.487129E0,-9.804102E-1,1.4039687E0,-2.4221456E0,-9.323163E-1,5.132656E-1,1.9563053E0,1.0294454E0,-1.2191023E0,9.126704E-1,3.6525694E-1,1.741926E0,-6.911022E-1,-3.9845377E-1,-1.7372086E0,9.880205E-2,-1.4684476E0,-2.4294687E-2,-1.7372086E0,-1.7165728E-1,-2.9198087E-3,2.8191604E-2,2.4816718E0,-2.5605088E-1,-1.7810558E-1,-1.9743194E-1,1.0952563E0,-1.7214752E0,5.235507E-1,3.8872585E-1,-3.4010031E0,2.587496E-1,-1.582303E0,-7.784301E0,2.233655E0,1.7597622E0,1.0133129E0,2.1670337E0,-3.695972E0,-1.5658443E0,-2.34788E0,4.3076918E-1,-1.0328082E0,3.8917155E0,1.2232023E0,-1.666753E0,-7.680079E-1,-3.187339E-2,-1.4420393E-1,6.577349E-2,1.74435E-1,3.04334E-2,-1.4639741E-1,-4.010211E-3,1.4141613E-1,-2.7692545E-2,-1.2985167E-1,-6.943231E-2,1.3997965E-1,9.6818544E-2,1.7311615E-1,8.547978E-2,1.7028938E-1,3.328485E-2,1.3294697E-1,-9.386506E-3,-1.5553904E-1,8.202287E-2,-7.209604E-2,1.266451E-1,-1.2504625E-3,6.4922996E-2,1.6547154E-1,9.106476E-3,1.554631E-1,1.1264987E-1,-1.4305413E-1,-1.4081529E-1,6.674636E-2,-1.7466109E-1,-5.629483E-2,-9.593663E-3,-1.4190975E-1,-1.7496857E-1,-5.731804E-2,-1.2722312E-1,5.2416544E-2,-9.363806E-2,-1.751131E-1,-2.012996E-2,1.0067757E-1,1.4531964E-1,-1.0131227E-1,-1.5665667E-1,8.129545E-2,-3.8097516E-2,1.161801E-1,-1.5111473E-1,5.2465864E-2,1.4029132E-1,-1.562379E-1,1.1349156E-1,-1.5220621E-1,1.6915125E-1,3.5668734E-2],"split_indices":[2,8,1,7,3,7,3,5,5,2,1,8,4,5,9,7,6,5,4,1,4,5,1,3,5,3,7,0,9,4,5,0,6,0,5,0,4,5,4,4,8,8,1,6,8,3,6,2,8,9,2,2,5,6,3,6,4,7,0,2,8,7,7,0,0,0,0,0,0,0,0,0,0,0,0,0,0,0,0,0,0,0,0,0,0,0,0,0,0,0,0,0,0,0,0,0,0,0,0,0,0,0,0,0,0,0,0,0,0,0,0,0,0,0,0,0,0,0,0,0,0],"split_type":[0,0,0,0,0,0,0,0,0,0,0,0,0,0,0,0,0,0,0,0,0,0,0,0,0,0,0,0,0,0,0,0,0,0,0,0,0,0,0,0,0,0,0,0,0,0,0,0,0,0,0,0,0,0,0,0,0,0,0,0,0,0,0,0,0,0,0,0,0,0,0,0,0,0,0,0,0,0,0,0,0,0,0,0,0,0,0,0,0,0,0,0,0,0,0,0,0,0,0,0,0,0,0,0,0,0,0,0,0,0,0,0,0,0,0,0,0,0,0,0,0],"sum_hessian":[2.4878005E3,6.888972E2,1.7989032E3,1.4498044E2,5.4391675E2,5.3308295E2,1.2658203E3,3.923039E1,1.0575005E2,4.6985446E2,7.406228E1,1.2903731E2,4.0404562E2,8.2306555E2,4.4275476E2,7.207822E0,3.2022568E1,6.9429535E1,3.632052E1,2.5182253E2,2.1803195E2,3.9231403E1,3.483087E1,8.3594826E1,4.5442474E1,1.2816199E2,2.7588364E2,5.8743115E2,2.3563438E2,2.951735E2,1.4758125E2,2.2400846E0,4.967737E0,1.2442595E0,3.0778309E1,5.4528152E1,1.4901383E1,2.1371292E1,1.4949225E1,4.734727E0,2.470878E2,7.4702675E1,1.4332927E2,3.42507E1,4.980702E0,1.942959E1,1.5401283E1,6.0964054E1,2.2630774E1,1.2972929E1,3.2469547E1,1.0207234E2,2.6089642E1,3.2515427E1,2.4336821E2,5.098355E2,7.7595665E1,8.4924416E1,1.5070996E2,2.2854672E2,6.662677E1,3.732036E1,1.102609E2,1.4910249E0,3.4767125E0,3.7312562E0,2.7047052E1,3.7282438E0,1.117314E1,2.4901304E0,1.888116E1,5.9932528E0,8.955973E0,1.9908406E0,2.7438865E0,1.2940142E1,2.3414766E2,4.4895396E0,7.0213135E1,8.704503E1,5.628425E1,2.2365475E0,3.2014153E1,3.4917593E0,1.4889427E0,9.711721E0,9.717868E0,1.9929955E0,1.3408288E1,1.7238297E1,4.3725758E1,4.478142E0,1.8152632E1,2.493951E0,1.0478978E1,3.123105E1,1.2384951E0,5.5402096E1,4.6670246E1,2.4849022E1,1.240619E0,2.8293549E1,4.2218795E0,8.440903E0,2.349273E2,1.2016584E2,3.8966968E2,1.8861906E1,5.8733757E1,7.6434944E1,8.489475E0,8.732191E1,6.3388058E1,2.2581612E2,2.73061E0,2.8602385E1,3.8024384E1,7.9687734E0,2.9351583E1,5.7706215E1,5.2554684E1],"tree_param":{"num_deleted":"0","num_feature":"10","num_nodes":"121","size_leaf_vector":"1"}},{"base_weights":[-2.0829921E-4,7.89168E-1,-3.008197E-1,-3.2229042E-1,1.0852745E0,-9.581203E-1,1.19484225E-2,8.239423E-1,-9.7388536E-1,1.247489E0,-3.4389386E-1,-5.4064732E-2,-1.289801E0,1.819706E-1,-1.0797251E0,-4.59034E-1,1.3596786E0,-1.4775087E0,3.040019E-1,1.5290691E0,9.2693627E-1,-1.2623085E0,8.1105465E-1,4.2391032E-1,-1.2539471E0,-7.0348406E-1,-1.4760232E0,-4.990334E-1,3.7685117E-1,-1.347348E0,1.1811273E0,1.2602548E-1,-1.1632699E0,-2.7337608E-1,1.5087371E0,-1.611127E-1,-9.26515E-1,1.3346031E0,-7.5626826E-1,9.9001116E-1,1.5855032E0,1.4907844E0,6.407625E-1,-1.5188187E0,4.0790868E-1,2.4466988E-1,1.3673922E0,9.826911E-1,-9.290795E-1,2.888796E-2,-1.6486815E0,-4.1659954E-1,-1.5787733E0,-1.5534792E0,-8.3927935E-1,1.1005393E0,-1.0318455E0,-4.7709975E-1,4.9908516E-1,-1.4705266E0,-4.2651922E-1,1.5960895E-1,-9.961774E-2,-1.4095317E-1,1.8623117E-2,-1.20345294E-1,9.9051766E-2,9.0606116E-2,1.6588615E-1,3.7255414E-2,-1.417882E-1,1.0920159E-2,1.4449158E-1,-1.0213192E-2,-1.2760846E-1,1.3815056E-1,-1.28121255E-2,1.14764474E-1,1.6295801E-1,1.5493123E-1,1.2027629E-2,2.6376707E-2,1.21533565E-1,-5.587543E-2,-1.5803337E-1,-9.549254E-2,1.1100222E-1,8.2609735E-2,-3.496253E-2,3.4023225E-2,1.4760613E-1,1.8979562E-2,1.5060437E-1,-1.2873147E-1,1.5036869E-1,5.560748E-2,-1.206378E-1,-4.8995316E-2,-1.6766554E-1,3.4038883E-2,-1.1955804E-1,-1.6475235E-1,-6.685444E-2,-9.236973E-2,-1.5770715E-1,-1.5571946E-1,9.998656E-2,1.4325534E-1,-1.1620263E-1,5.3761333E-2,-1.2479683E-1,9.649168E-2,-1.0210283E-1,2.1655535E-2,9.80291E-2,6.8567835E-2,-1.4966983E-1,1.3426748E-1,-1.19904175E-1],"categories":[],"categories_nodes":[],"categories_segments":[],"categories_sizes":[],"default_left":[0,0,0,0,0,0,0,0,0,0,0,0,0,0,0,0,0,0,0,0,0,0,0,0,0,0,0,0,0,0,0,0,0,0,0,0,0,0,0,0,0,0,0,0,0,0,0,0,0,0,0,0,0,0,0,0,0,0,0,0,0,0,0,0,0,0,0,0,0,0,0,0,0,0,0,0,0,0,0,0,0,0,0,0,0,0,0,0,0,0,0,0,0,0,0,0,0,0,0,0,0,0,0,0,0,0,0,0,0,0,0,0,0,0,0,0,0,0,0],"id":2,"left_children":[1,3,5,7,9,11,13,15,17,19,21,23,25,27,29,31,33,35,37,39,41,43,45,47,49,51,53,55,57,59,61,-1,63,65,67,-1,69,71,73,75,77,79,81,83,85,87,89,91,93,95,97,99,101,103,105,107,109,111,113,115,117,-1,-1,-1,-1,-1,-1,-1,-1,-1,-1,-1,-1,-1,-1,-1,-1,-1,-1,-1,-1,-1,-1,-1,-1,-1,-1,-1,-1,-1,-1,-1,-1,-1,-1,-1,-1,-1,-1,-1,-1,-1,-1,-1,-1,-1,-1,-1,-1,-1,-1,-1,-1,-1,-1,-1,-1,-1,-1],"loss_changes":[5.83782E2,2.2364853E2,3.6628882E2,1.0798268E2,1.2468817E2,1.7218378E2,2.2444965E2,3.674544E1,5.96268E1,4.2049744E1,5.9807766E1,8.955846E1,4.4843506E1,1.3904001E2,1.0019006E2,2.1114582E1,9.498047E0,3.3757782E0,3.0319845E1,6.182556E0,3.579251E1,1.4012943E1,7.5924683E0,8.540407E1,2.25681E1,2.525793E1,1.4380493E1,1.9989853E2,8.52081E1,1.5953186E1,1.7655031E1,0E0,4.2612286E0,5.8570657E0,1.6053772E0,0E0,1.0268855E1,1.7297974E0,4.582418E0,1.1913956E1,2.5497437E0,5.90329E0,3.2782246E1,7.299576E-1,5.7967033E0,5.017155E0,8.9006233E-1,3.273623E1,3.0851194E1,8.125607E0,2.814331E-1,4.704329E1,4.7040176E-1,2.7384033E0,4.9966656E1,4.580291E1,6.0185837E1,8.133513E1,9.66678E1,8.27887E0,2.7107107E1,0E0,0E0,0E0,0E0,0E0,0E0,0E0,0E0,0E0,0E0,0E0,0E0,0E0,0E0,0E0,0E0,0E0,0E0,0E0,0E0,0E0,0E0,0E0,0E0,0E0,0E0,0E0,0E0,0E0,0E0,0E0,0E0,0E0,0E0,0E0,0E0,0E0,0E0,0E0,0E0,0E0,0E0,0E0,0E0,0E0,0E0,0E0,0E0,0E0,0E0,0E0,0E0,0E0,0E0,0E0,0E0,0E0,0E0],"parents":[2147483647,0,0,1,1,2,2,3,3,4,4,5,5,6,6,7,7,8,8,9,9,10,10,11,11,12,12,13,13,14,14,15,15,16,16,17,17,18,18,19,19,20,20,21,21,22,22,23,23,24,24,25,25,26,26,27,27,28,28,29,29,30,30,32,32,33,33,34,34,36,36,37,37,38,38,39,39,40,40,41,41,42,42,43,43,44,44,45,45,46,46,47,47,48,48,49,49,50,50,51,51,52,52,53,53,54,54,55,55,56,56,57,57,58,58,59,59,60,60],"right_children":[2,4,6,8,10,12,14,16,18,20,22,24,26,28,30,32,34,36,38,40,42,44,46,48,50,52,54,56,58,60,62,-1,64,66,68,-1,70,72,74,76,78,80,82,84,86,88,90,92,94,96,98,100,102,104,106,108,110,112,114,116,118,-1,-1,-1,-1,-1,-1,-1,-1,-1,-1,-1,-1,-1,-1,-1,-1,-1,-1,-1,-1,-1,-1,-1,-1,-1,-1,-1,-1,-1,-1,-1,-1,-1,-1,-1,-1,-1,-1,-1,-1,-1,-1,-1,-1,-1,-1,-1,-1,-1,-1,-1,-1,-1,-1,-1,-1,-1,-1],"split_conditions":[-4.0866625E-1,-6.3771856E-1,-3.5368064E-1,-1.423924E0,2.5531146E-1,-5.45599E-1,3.0104196E0,-1.7372086E0,1.19521946E-1,-1.3063444E0,3.7412688E-1,2.0115142E0,-4.5056218E-1,-3.2453194E0,1.6140194E-1,-3.8906348E0,-2.9549143E0,-7.6707983E-1,1.1268007E0,-1.0609261E0,-1.0260986E0,3.194998E-1,1.9563053E0,8.6866754E-1,-1.2719136E0,1.1415913E0,1.9251665E0,-1.9688096E0,-2.848208E0,-9.503812E-1,2.4675276E0,1.2602548E-1,-8.372983E-1,9.654044E-1,-2.0476189E0,-1.611127E-1,2.1132405E-1,-3.6573157E0,2.4816718E0,-9.2206794E-1,9.425305E-2,1.4607799E-1,1.0952563E0,-2.873159E0,-1.9053315E0,9.764355E-3,-3.4010031E0,5.691635E-1,-4.9395406E-1,2.9379752E0,-2.8960998E0,1.6500283E0,-1.271176E0,-2.695798E-1,-2.0056546E0,1.8217492E0,3.2827336E-1,-8.484611E-1,1.2710816E0,-3.7004852E0,5.186178E-1,1.5960895E-1,-9.961774E-2,-1.4095317E-1,1.8623117E-2,-1.20345294E-1,9.9051766E-2,9.0606116E-2,1.6588615E-1,3.7255414E-2,-1.417882E-1,1.0920159E-2,1.4449158E-1,-1.0213192E-2,-1.2760846E-1,1.3815056E-1,-1.28121255E-2,1.14764474E-1,1.6295801E-1,1.5493123E-1,1.2027629E-2,2.6376707E-2,1.21533565E-1,-5.587543E-2,-1.5803337E-1,-9.549254E-2,1.1100222E-1,8.2609735E-2,-3.496253E-2,3.4023225E-2,1.4760613E-1,1.8979562E-2,1.5060437E-1,-1.2873147E-1,1.5036869E-1,5.560748E-2,-1.206378E-1,-4.8995316E-2,-1.6766554E-1,3.4038883E-2,-1.1955804E-1,-1.6475235E-1,-6.685444E-2,-9.236973E-2,-1.5770715E-1,-1.5571946E-1,9.998656E-2,1.4325534E-1,-1.1620263E-1,5.3761333E-2,-1.2479683E-1,9.649168E-2,-1.0210283E-1,2.1655535E-2,9.80291E-2,6.8567835E-2,-1.4966983E-1,1.3426748E-1,-1.19904175E-1],"split_indices":[2,8,1,7,3,7,0,5,5,2,1,8,4,9,5,7,6,5,4,1,4,5,1,3,5,3,6,5,6,5,6,0,8,3,2,0,4,6,4,3,8,3,1,7,9,8,6,2,4,8,4,2,4,7,1,3,8,4,4,7,6,0,0,0,0,0,0,0,0,0,0,0,0,0,0,0,0,0,0,0,0,0,0,0,0,0,0,0,0,0,0,0,0,0,0,0,0,0,0,0,0,0,0,0,0,0,0,0,0,0,0,0,0,0,0,0,0,0,0],"split_type":[0,0,0,0,0,0,0,0,0,0,0,0,0,0,0,0,0,0,0,0,0,0,0,0,0,0,0,0,0,0,0,0,0,0,0,0,0,0,0,0,0,0,0,0,0,0,0,0,0,0,0,0,0,0,0,0,0,0,0,0,0,0,0,0,0,0,0,0,0,0,0,0,0,0,0,0,0,0,0,0,0,0,0,0,0,0,0,0,0,0,0,0,0,0,0,0,0,0,0,0,0,0,0,0,0,0,0,0,0,0,0,0,0,0,0,0,0,0,0],"sum_hessian":[2.4581475E3,6.7749255E2,1.7806548E3,1.4250409E2,5.3498846E2,5.734508E2,1.207204E3,5.155255E1,9.0951546E1,4.8056964E2,5.4418846E1,1.5423058E2,4.1922025E2,1.045246E3,1.6195802E2,1.5227955E1,3.6324596E1,6.512798E1,2.5823559E1,2.5383002E2,2.2673962E2,3.0261753E1,2.4157091E1,1.1075704E2,4.3473534E1,1.02205605E2,3.1701465E2,2.322155E2,8.1303046E2,1.451771E2,1.6780926E1,4.1955643E0,1.1032391E1,2.9684837E0,3.335611E1,5.0868206E1,1.425978E1,1.2963789E1,1.285977E1,2.581246E1,2.2801756E2,7.491845E1,1.5182118E2,2.6311504E1,3.9502482E0,1.2683907E1,1.1473186E1,7.857818E1,3.2178864E1,1.0447463E1,3.302607E1,7.808759E1,2.411801E1,2.8135037E2,3.566427E1,5.7756695E1,1.7445882E2,1.0144091E2,7.1158954E2,1.27521645E2,1.7655449E1,1.4318898E1,2.4620268E0,9.292229E0,1.740162E0,1.7376206E0,1.230863E0,8.054926E0,2.5301186E1,3.979811E0,1.0279969E1,1.2349827E0,1.17288065E1,6.223987E0,6.6357827E0,1.8944002E1,6.8684564E0,2.3326874E1,2.0469069E2,7.172495E1,3.193494E0,9.255319E1,5.9267982E1,2.1915283E0,2.4119976E1,1.220714E0,2.7295341E0,6.2142057E0,6.469701E0,1.4929038E0,9.980281E0,3.1785225E1,4.679295E1,2.8458998E1,3.719867E0,7.7077727E0,2.7396898E0,1.2149595E0,3.1811111E1,3.9888386E1,3.8199207E1,2.1671162E1,2.4468486E0,1.1608991E1,2.697414E2,2.5761501E1,9.902767E0,5.068579E1,7.0709047E0,2.0936066E1,1.5352275E2,2.7571566E1,7.386935E1,4.4926382E2,2.623257E2,1.227074E0,1.2629457E2,5.1418324E0,1.2513617E1],"tree_param":{"num_deleted":"0","num_feature":"10","num_nodes":"119","size_leaf_vector":"1"}},{"base_weights":[-2.587496E-4,7.2990173E-1,-2.7527508E-1,-2.9833838E-1,1.0031533E0,-8.696172E-1,1.931793E-2,1.0166942E0,-7.91207E-1,1.1917926E0,-7.548598E-2,-3.527197E-2,-1.1857696E0,-4.943163E-1,3.3637327E-1,-4.30162E-1,1.3505114E0,-1.3749915E0,2.7582702E-1,1.451193E0,8.924227E-1,-1.1455463E0,8.6804414E-1,6.9673926E-1,-7.0853317E-1,-7.8107184E-1,-1.4226506E0,7.7416945E-1,-8.947264E-1,4.1163787E-1,-9.4155765E-1,8.5027434E-2,-1.057259E0,-2.1241326E-2,1.4210525E0,-1.4541001E0,-7.442879E-1,1.0706522E0,-8.201464E-1,9.740201E-1,1.4914778E0,1.2444526E0,4.6968973E-1,-1.4343815E0,-4.267315E-3,9.634522E-1,-8.827658E-2,-4.13788E-1,1.3179097E0,4.3502155E-1,-1.4245075E0,5.879984E-1,-8.9521915E-1,-8.4888244E-1,-1.4988679E0,1.3228253E0,-1.4266036E0,-5.574156E-1,-1.5321132E0,-2.3284796E-1,6.035077E-1,-1.5758108E0,1.3334861E0,-2.500639E-2,-1.2730432E-1,5.8678895E-2,1.5142442E-1,-7.496252E-2,-1.4972715E-1,5.810066E-2,-1.1752083E-1,6.0804104E-3,1.2104344E-1,-2.3839584E-2,-1.1392998E-1,-7.1860105E-2,1.2341001E-1,1.09992936E-1,1.5224576E-1,5.2434336E-2,1.3604692E-1,4.801518E-3,1.1067402E-1,-2.3384817E-2,-1.4879075E-1,-1.0679132E-1,8.904619E-2,2.0215375E-2,1.2059044E-1,-8.716734E-2,1.1881995E-1,1.457966E-1,-4.7550492E-2,7.290486E-2,-1.231029E-1,-1.576253E-1,-5.8877118E-2,1.3278177E-1,-9.088627E-2,-1.067835E-1,-8.014499E-3,-1.1271556E-1,4.954793E-2,-3.3697893E-3,-1.5063976E-1,1.8176338E-2,1.5184084E-1,-1.7118995E-1,1.21741846E-1,-8.778462E-2,1.1428612E-1,8.134373E-2,-1.573874E-1,-9.157938E-2,8.581568E-2,8.10069E-2,-8.0772594E-4,-5.0307374E-2,-1.6009949E-1,1.4626071E-2,1.4906606E-1],"categories":[],"categories_nodes":[],"categories_segments":[],"categories_sizes":[],"default_left":[0,0,0,0,0,0,0,0,0,0,0,0,0,0,0,0,0,0,0,0,0,0,0,0,0,0,0,0,0,0,0,0,0,0,0,0,0,0,0,0,0,0,0,0,0,0,0,0,0,0,0,0,0,0,0,0,0,0,0,0,0,0,0,0,0,0,0,0,0,0,0,0,0,0,0,0,0,0,0,0,0,0,0,0,0,0,0,0,0,0,0,0,0,0,0,0,0,0,0,0,0,0,0,0,0,0,0,0,0,0,0,0,0,0,0,0,0,0,0,0,0],"id":3,"left_children":[1,3,5,7,9,11,13,15,17,19,21,23,25,27,29,31,33,35,37,39,41,43,45,47,49,51,53,55,57,59,61,-1,63,-1,65,67,69,71,73,75,77,79,81,83,85,87,-1,89,91,93,95,97,99,101,103,105,107,109,111,113,115,117,119,-1,-1,-1,-1,-1,-1,-1,-1,-1,-1,-1,-1,-1,-1,-1,-1,-1,-1,-1,-1,-1,-1,-1,-1,-1,-1,-1,-1,-1,-1,-1,-1,-1,-1,-1,-1,-1,-1,-1,-1,-1,-1,-1,-1,-1,-1,-1,-1,-1,-1,-1,-1,-1,-1,-1,-1,-1,-1],"loss_changes":[4.86035E2,1.863641E2,3.0785706E2,9.141872E1,1.06592224E2,1.536594E2,1.9176083E2,1.9200863E1,6.4075935E1,3.330609E1,8.060757E1,7.991432E1,3.9395325E1,2.2897511E2,7.041411E1,7.3110576E0,3.782032E0,2.223793E0,3.310367E1,3.1053772E0,3.0583878E1,1.231599E1,7.945286E0,5.415241E1,6.975523E1,2.5252983E1,1.0329956E1,1.3274109E2,7.269229E1,8.524855E1,6.0971764E1,0E0,6.929636E-1,0E0,1.469738E0,6.3632965E-1,6.070197E0,3.0144825E0,2.7208252E0,1.0282204E1,9.549866E-1,8.783371E0,2.5942446E1,1.5687752E0,9.090192E0,7.278969E0,0E0,2.204131E1,1.3270935E1,1.719912E1,5.6870804E0,1.5359893E1,2.051831E1,1.3059557E1,2.5186157E0,1.9198898E1,1.8759872E1,1.2373456E2,1.2820038E1,1.1897007E2,6.704231E1,6.8870544E-2,1.5427666E0,0E0,0E0,0E0,0E0,0E0,0E0,0E0,0E0,0E0,0E0,0E0,0E0,0E0,0E0,0E0,0E0,0E0,0E0,0E0,0E0,0E0,0E0,0E0,0E0,0E0,0E0,0E0,0E0,0E0,0E0,0E0,0E0,0E0,0E0,0E0,0E0,0E0,0E0,0E0,0E0,0E0,0E0,0E0,0E0,0E0,0E0,0E0,0E0,0E0,0E0,0E0,0E0,0E0,0E0,0E0,0E0,0E0,0E0],"parents":[2147483647,0,0,1,1,2,2,3,3,4,4,5,5,6,6,7,7,8,8,9,9,10,10,11,11,12,12,13,13,14,14,15,15,16,16,17,17,18,18,19,19,20,20,21,21,22,22,23,23,24,24,25,25,26,26,27,27,28,28,29,29,30,30,32,32,34,34,35,35,36,36,37,37,38,38,39,39,40,40,41,41,42,42,43,43,44,44,45,45,47,47,48,48,49,49,50,50,51,51,52,52,53,53,54,54,55,55,56,56,57,57,58,58,59,59,60,60,61,61,62,62],"right_children":[2,4,6,8,10,12,14,16,18,20,22,24,26,28,30,32,34,36,38,40,42,44,46,48,50,52,54,56,58,60,62,-1,64,-1,66,68,70,72,74,76,78,80,82,84,86,88,-1,90,92,94,96,98,100,102,104,106,108,110,112,114,116,118,120,-1,-1,-1,-1,-1,-1,-1,-1,-1,-1,-1,-1,-1,-1,-1,-1,-1,-1,-1,-1,-1,-1,-1,-1,-1,-1,-1,-1,-1,-1,-1,-1,-1,-1,-1,-1,-1,-1,-1,-1,-1,-1,-1,-1,-1,-1,-1,-1,-1,-1,-1,-1,-1,-1,-1,-1,-1,-1],"split_conditions":[-4.0866625E-1,-6.3771856E-1,-2.8881902E-1,-2.0334058E0,-4.364178E-2,-5.45599E-1,-1.9389257E0,-2.5419922E0,-2.0826647E-1,-1.3063444E0,2.0863803E-1,9.196541E-1,1.9134976E-1,-5.6260335E-1,3.8669403E0,-3.8906348E0,-3.487129E0,-6.661607E-1,1.4039687E0,9.764355E-3,1.490384E-1,-1.809046E0,1.4713355E0,-6.833293E-2,-1.1471193E0,-3.608237E0,3.6525694E-1,4.366289E-2,1.6950785E0,5.775915E-1,-9.804102E-1,8.5027434E-2,-1.4684476E0,-2.1241326E-2,-1.7372086E0,-1.6470604E0,2.1132405E-1,2.8191604E-2,2.4816718E0,-1.7643224E0,-1.1118486E0,1.8483146E-1,1.0551454E0,-3.3861715E-1,-3.812087E-1,9.6876904E-2,-8.827658E-2,-4.5056218E-1,2.2376728E0,4.3304726E-1,2.1038754E0,1.6500283E0,-1.0164486E0,2.0007951E0,-4.652718E0,-2.0818381E0,8.290225E-2,-2.3399274E-1,-3.2043998E0,-6.961008E-1,1.1607215E0,-3.9695835E0,-7.830604E-2,-2.500639E-2,-1.2730432E-1,5.8678895E-2,1.5142442E-1,-7.496252E-2,-1.4972715E-1,5.810066E-2,-1.1752083E-1,6.0804104E-3,1.2104344E-1,-2.3839584E-2,-1.1392998E-1,-7.1860105E-2,1.2341001E-1,1.09992936E-1,1.5224576E-1,5.2434336E-2,1.3604692E-1,4.801518E-3,1.1067402E-1,-2.3384817E-2,-1.4879075E-1,-1.0679132E-1,8.904619E-2,2.0215375E-2,1.2059044E-1,-8.716734E-2,1.1881995E-1,1.457966E-1,-4.7550492E-2,7.290486E-2,-1.231029E-1,-1.576253E-1,-5.8877118E-2,1.3278177E-1,-9.088627E-2,-1.067835E-1,-8.014499E-3,-1.1271556E-1,4.954793E-2,-3.3697893E-3,-1.5063976E-1,1.8176338E-2,1.5184084E-1,-1.7118995E-1,1.21741846E-1,-8.778462E-2,1.1428612E-1,8.134373E-2,-1.573874E-1,-9.157938E-2,8.581568E-2,8.10069E-2,-8.0772594E-4,-5.0307374E-2,-1.6009949E-1,1.4626071E-2,1.4906606E-1],"split_indices":[2,8,1,7,3,7,9,5,5,2,1,8,4,3,0,7,6,5,4,8,4,9,3,6,5,3,7,5,8,1,5,0,6,0,5,7,4,5,4,3,1,8,1,8,5,0,0,4,3,3,6,2,9,6,6,0,7,4,5,6,6,4,9,0,0,0,0,0,0,0,0,0,0,0,0,0,0,0,0,0,0,0,0,0,0,0,0,0,0,0,0,0,0,0,0,0,0,0,0,0,0,0,0,0,0,0,0,0,0,0,0,0,0,0,0,0,0,0,0,0,0],"split_type":[0,0,0,0,0,0,0,0,0,0,0,0,0,0,0,0,0,0,0,0,0,0,0,0,0,0,0,0,0,0,0,0,0,0,0,0,0,0,0,0,0,0,0,0,0,0,0,0,0,0,0,0,0,0,0,0,0,0,0,0,0,0,0,0,0,0,0,0,0,0,0,0,0,0,0,0,0,0,0,0,0,0,0,0,0,0,0,0,0,0,0,0,0,0,0,0,0,0,0,0,0,0,0,0,0,0,0,0,0,0,0,0,0,0,0,0,0,0,0,0,0],"sum_hessian":[2.4184194E3,6.612269E2,1.7571925E3,1.3880705E2,5.2241986E2,5.816865E2,1.175506E3,3.755173E1,1.0125532E2,4.4456635E2,7.785349E1,1.601507E2,4.2153583E2,4.4845053E2,7.270554E2,6.9855986E0,3.0566132E1,6.526151E1,3.599381E1,2.3612202E2,2.0844434E2,3.6380337E1,4.1473156E1,7.671094E1,8.343976E1,1.572243E2,2.6431152E2,1.0737061E2,3.4107993E2,6.8725684E2,3.979856E1,2.1795006E0,4.806098E0,1.2331434E0,2.9332989E1,5.682809E1,8.43342E0,2.0876669E1,1.511714E1,2.0342606E1,2.1577942E2,1.1267263E2,9.57717E1,2.8827778E1,7.552558E0,3.9756393E1,1.7167629E0,2.7636435E1,4.9074505E1,3.2277893E1,5.116186E1,1.1780387E1,1.4544392E2,3.2416412E1,2.3189511E2,8.626384E1,2.1106771E1,2.2426918E2,1.16810745E2,1.5761581E2,5.2964105E2,3.1362457E1,8.436104E0,1.4691678E0,3.3369303E0,3.680576E0,2.5652412E1,4.3418164E0,5.2486275E1,1.9838383E0,6.4495816E0,2.7128475E0,1.816382E1,5.9742613E0,9.142879E0,2.4746153E0,1.786799E1,1.8497482E1,1.9728194E2,1.639974E1,9.627289E1,5.8274315E1,3.7497387E1,1.4595865E0,2.736819E1,3.3621294E0,4.1904287E0,1.004595E1,2.9710445E1,2.1847725E1,5.7887087E0,4.5693153E1,3.3813493E0,2.7913998E1,4.363894E0,4.2549957E1,8.611905E0,7.9594054E0,3.8209817E0,1.1976917E2,2.5674747E1,2.6991034E1,5.4253798E0,1.2136437E0,2.3068146E2,1.2904764E1,7.335907E1,1.9369318E1,1.7374536E0,1.8911304E2,3.5156147E1,1.7201099E0,1.1509064E2,9.703473E1,6.058108E1,3.9567746E2,1.339636E2,1.2005329E0,3.0161924E1,1.2119722E0,7.2241316E0],"tree_param":{"num_deleted":"0","num_feature":"10","num_nodes":"121","size_leaf_vector":"1"}},{"base_weights":[-3.4431412E-4,-6.5904397E-1,2.599056E-1,7.279724E-2,-1.018289E0,5.3066313E-1,-3.8595024E-1,4.33601E-1,-9.531255E-1,6.378622E-2,-1.1023191E0,1.0095916E0,2.6579735E-1,-9.315991E-1,4.7259298E-1,9.4357836E-1,-5.6489676E-1,1.0179473E0,-1.2811149E0,9.1408736E-1,-1.3039049E0,-2.5942615E-1,-1.1805187E0,-3.8070032E-1,1.1661195E0,1.3751463E0,1.4802235E-1,-4.040751E-1,-1.2504975E0,-7.705021E-1,8.937753E-1,1.0643712E0,-1.4630958E-1,1.3756407E0,-1.1803623E0,-3.8376953E-2,1.4017925E-1,-1.3920232E0,9.721639E-2,1.2470936E0,-2.926455E-1,-1.4257814E-1,-3.6719378E-2,9.072306E-1,-1.2408284E0,-7.879E-1,-1.3622068E0,1.0151461E0,-8.7691474E-1,8.7701076E-1,1.3828878E0,-8.9971757E-1,1.4664402E0,3.784566E-1,-3.7306577E-1,2.959617E-1,-1.2850733E0,-8.283423E-1,-1.3803366E0,1.3417051E0,-1.1862274E0,1.4370081E0,4.0469712E-1,8.319393E-2,1.4222479E-1,-1.00568354E-1,1.1269479E-1,1.2171415E-2,1.4829394E-1,-1.5423284E-1,-3.1022668E-2,-3.651673E-2,-1.5002342E-1,-3.4779195E-2,1.4449374E-1,1.032808E-1,-1.1456444E-1,-7.403044E-2,1.1502979E-1,-1.4175953E-1,4.6811175E-2,-9.626632E-2,2.6285246E-2,-7.042402E-2,-1.3948193E-1,-2.917057E-2,1.2168314E-1,-1.1894464E-1,8.350406E-3,-4.2418625E-2,1.11745074E-1,1.4429119E-1,9.1933385E-2,-2.8577551E-2,-1.1096942E-1,6.6106595E-2,1.5545265E-1,5.327958E-2,-9.271363E-2,-1.2706177E-1,1.2197139E-2,-4.816926E-2,1.5785055E-1,5.1277976E-2,-1.4001028E-1,-1.069724E-1,7.547419E-2,-1.4165495E-1,8.8778725E-3,5.288334E-2,1.4603415E-1,-3.3104133E-2,-1.477312E-1,2.8025134E-2,1.4833926E-1,-3.5639305E-2,1.0446836E-1],"categories":[],"categories_nodes":[],"categories_segments":[],"categories_sizes":[],"default_left":[0,0,0,0,0,0,0,0,0,0,0,0,0,0,0,0,0,0,0,0,0,0,0,0,0,0,0,0,0,0,0,0,0,0,0,0,0,0,0,0,0,0,0,0,0,0,0,0,0,0,0,0,0,0,0,0,0,0,0,0,0,0,0,0,0,0,0,0,0,0,0,0,0,0,0,0,0,0,0,0,0,0,0,0,0,0,0,0,0,0,0,0,0,0,0,0,0,0,0,0,0,0,0,0,0,0,0,0,0,0,0,0,0,0,0,0,0],"id":4,"left_children":[1,3,5,7,9,11,13,15,17,19,21,23,25,27,29,31,33,35,37,39,41,43,45,47,49,51,53,55,57,59,61,63,65,67,69,-1,-1,71,-1,73,75,-1,-1,77,79,81,83,85,87,89,91,93,95,97,99,101,103,105,107,109,111,113,115,-1,-1,-1,-1,-1,-1,-1,-1,-1,-1,-1,-1,-1,-1,-1,-1,-1,-1,-1,-1,-1,-1,-1,-1,-1,-1,-1,-1,-1,-1,-1,-1,-1,-1,-1,-1,-1,-1,-1,-1,-1,-1,-1,-1,-1,-1,-1,-1,-1,-1,-1,-1,-1,-1],"loss_changes":[4.0660544E2,1.766785E2,2.9751324E2,8.262619E1,4.1044373E1,1.5174777E2,2.3597838E2,8.4554245E1,3.886541E1,4.005492E1,2.725946E1,9.3233765E1,1.00790405E2,5.1266235E1,1.0332927E2,1.4583832E1,6.899466E1,5.2974596E0,1.3912186E1,8.881903E0,9.8607445E-1,4.324534E1,2.620642E1,3.1297928E1,2.2819946E1,1.670198E1,8.4185455E1,7.279999E1,9.343506E0,4.5627586E1,3.8444855E1,7.033516E0,1.4059873E1,1.7091312E0,1.3179485E1,0E0,0E0,4.8200073E0,0E0,5.803774E0,7.2814455E0,0E0,0E0,7.8135357E0,6.8267574E0,2.2905045E1,4.5982056E0,3.5117874E0,9.98189E0,5.273932E1,4.7232666E0,1.3117862E-1,4.051178E0,9.838595E1,9.573568E1,6.683191E1,1.1509003E1,1.8959778E1,7.8303223E0,6.8302155E-2,1.0073822E1,3.2972565E0,3.870137E1,0E0,0E0,0E0,0E0,0E0,0E0,0E0,0E0,0E0,0E0,0E0,0E0,0E0,0E0,0E0,0E0,0E0,0E0,0E0,0E0,0E0,0E0,0E0,0E0,0E0,0E0,0E0,0E0,0E0,0E0,0E0,0E0,0E0,0E0,0E0,0E0,0E0,0E0,0E0,0E0,0E0,0E0,0E0,0E0,0E0,0E0,0E0,0E0,0E0,0E0,0E0,0E0,0E0,0E0],"parents":[2147483647,0,0,1,1,2,2,3,3,4,4,5,5,6,6,7,7,8,8,9,9,10,10,11,11,12,12,13,13,14,14,15,15,16,16,17,17,18,18,19,19,20,20,21,21,22,22,23,23,24,24,25,25,26,26,27,27,28,28,29,29,30,30,31,31,32,32,33,33,34,34,37,37,39,39,40,40,43,43,44,44,45,45,46,46,47,47,48,48,49,49,50,50,51,51,52,52,53,53,54,54,55,55,56,56,57,57,58,58,59,59,60,60,61,61,62,62],"right_children":[2,4,6,8,10,12,14,16,18,20,22,24,26,28,30,32,34,36,38,40,42,44,46,48,50,52,54,56,58,60,62,64,66,68,70,-1,-1,72,-1,74,76,-1,-1,78,80,82,84,86,88,90,92,94,96,98,100,102,104,106,108,110,112,114,116,-1,-1,-1,-1,-1,-1,-1,-1,-1,-1,-1,-1,-1,-1,-1,-1,-1,-1,-1,-1,-1,-1,-1,-1,-1,-1,-1,-1,-1,-1,-1,-1,-1,-1,-1,-1,-1,-1,-1,-1,-1,-1,-1,-1,-1,-1,-1,-1,-1,-1,-1,-1,-1,-1],"split_conditions":[-4.3948552E-1,-5.6685203E-1,5.5303615E-1,7.555233E-1,-3.461905E0,-4.0866625E-1,-1.0503471E0,-7.850257E-1,-1.582303E0,2.1025808E0,-9.007936E-1,-6.979405E-1,-2.34788E0,-1.541047E0,-1.59056E0,-3.7359917E-1,1.0972767E-1,-2.5010989E0,2.0827656E0,-6.1431754E-1,-4.904512E0,-1.0044061E0,-4.2744022E-2,-2.4604063E0,1.2232023E0,-1.7296801E0,1.3805352E-1,6.885247E-1,1.2252874E0,-2.2802725E0,-9.903171E-1,1.4032104E0,1.5297681E-1,-6.661607E-1,1.8418773E0,-3.8376953E-2,1.4017925E-1,-1.0482634E0,9.721639E-2,-2.574977E0,-6.597577E-1,-1.4257814E-1,-3.6719378E-2,-5.022791E-1,1.041383E0,-1.0164486E0,-3.2606652E0,-2.8788471E0,7.057959E-2,-1.8120956E0,-1.0856022E0,-2.495303E0,-6.059064E-1,1.741926E0,-6.911022E-1,-7.5589246E-1,-2.4689455E0,2.3416202E0,3.8917155E0,6.8265146E-1,-8.062898E-1,6.154048E-1,2.7745372E-1,8.319393E-2,1.4222479E-1,-1.00568354E-1,1.1269479E-1,1.2171415E-2,1.4829394E-1,-1.5423284E-1,-3.1022668E-2,-3.651673E-2,-1.5002342E-1,-3.4779195E-2,1.4449374E-1,1.032808E-1,-1.1456444E-1,-7.403044E-2,1.1502979E-1,-1.4175953E-1,4.6811175E-2,-9.626632E-2,2.6285246E-2,-7.042402E-2,-1.3948193E-1,-2.917057E-2,1.2168314E-1,-1.1894464E-1,8.350406E-3,-4.2418625E-2,1.11745074E-1,1.4429119E-1,9.1933385E-2,-2.8577551E-2,-1.1096942E-1,6.6106595E-2,1.5545265E-1,5.327958E-2,-9.271363E-2,-1.2706177E-1,1.2197139E-2,-4.816926E-2,1.5785055E-1,5.1277976E-2,-1.4001028E-1,-1.069724E-1,7.547419E-2,-1.4165495E-1,8.8778725E-3,5.288334E-2,1.4603415E-1,-3.3104133E-2,-1.477312E-1,2.8025134E-2,1.4833926E-1,-3.5639305E-2,1.0446836E-1],"split_indices":[1,7,3,3,3,2,9,5,8,2,2,8,4,7,5,0,8,4,2,9,0,0,4,7,8,0,5,8,3,7,7,6,2,5,6,0,0,8,0,1,2,0,0,8,5,9,6,5,3,0,3,3,0,0,9,4,5,2,2,4,7,3,5,0,0,0,0,0,0,0,0,0,0,0,0,0,0,0,0,0,0,0,0,0,0,0,0,0,0,0,0,0,0,0,0,0,0,0,0,0,0,0,0,0,0,0,0,0,0,0,0,0,0,0,0,0,0],"split_type":[0,0,0,0,0,0,0,0,0,0,0,0,0,0,0,0,0,0,0,0,0,0,0,0,0,0,0,0,0,0,0,0,0,0,0,0,0,0,0,0,0,0,0,0,0,0,0,0,0,0,0,0,0,0,0,0,0,0,0,0,0,0,0,0,0,0,0,0,0,0,0,0,0,0,0,0,0,0,0,0,0,0,0,0,0,0,0,0,0,0,0,0,0,0,0,0,0,0,0,0,0,0,0,0,0,0,0,0,0,0,0,0,0,0,0,0,0],"sum_hessian":[2.3698938E3,6.707287E2,1.699165E3,2.2110294E2,4.496258E2,1.1973761E3,5.0178903E2,1.6400267E2,5.710026E1,3.2417652E1,4.1720813E2,4.2538544E2,7.719906E2,3.06749E2,1.9504002E2,1.0859391E2,5.5408756E1,7.84595E0,4.9254314E1,2.0194363E1,1.222329E1,3.5786995E1,3.8142114E2,4.2901264E1,3.8248416E2,7.306826E1,6.9892236E2,1.1642501E2,1.90324E2,4.9149315E1,1.458907E2,9.778029E1,1.0813625E1,1.3044589E1,4.2364166E1,1.6866986E0,6.159251E0,4.7308E1,1.9463148E0,1.5800626E1,4.393738E0,1.0354006E1,1.8692839E0,1.6384842E1,1.9402151E1,1.2235487E2,2.5906625E2,1.0977075E1,3.192419E1,1.6605663E2,2.1642754E2,2.4775465E0,7.059071E1,4.8480627E2,2.1411607E2,6.52454E1,5.117961E1,4.6503563E1,1.4382043E2,7.716438E0,4.1432877E1,6.820041E1,7.76903E1,6.1295223E1,3.648506E1,6.5815887E0,4.232036E0,1.1964803E0,1.1848108E1,2.9372885E1,1.2991282E1,4.927129E0,4.238087E1,1.6600983E0,1.4140527E1,1.6378804E0,2.7558575E0,1.8435302E0,1.4541312E1,1.7737888E1,1.6642632E0,1.04978485E2,1.7376394E1,1.3301382E1,2.4576488E2,1.4079157E0,9.569159E0,2.3906324E1,8.017866E0,2.577968E1,1.4027695E2,1.8974533E2,2.6682215E1,1.2331055E0,1.2444409E0,7.7980237E0,6.279269E1,4.3408353E2,5.0722775E1,7.5556984E1,1.385591E2,4.1006218E1,2.423918E1,2.8697088E0,4.8309902E1,4.0632393E1,5.871167E0,1.4039555E2,3.4248853E0,1.6778377E0,6.0386004E0,1.1064225E1,3.036865E1,2.9008002E0,6.529961E1,3.5689934E1,4.2000366E1],"tree_param":{"num_deleted":"0","num_feature":"10","num_nodes":"117","size_leaf_vector":"1"}},{"base_weights":[-3.9526552E-4,-6.1408293E-1,2.3918785E-1,6.822624E-2,-9.517396E-1,4.8667902E-1,-3.5750863E-1,3.8580653E-1,-9.4031113E-1,5.5721033E-2,-1.0307171E0,9.4217587E-1,2.4114266E-1,-8.6601526E-1,4.3752244E-1,8.396004E-1,-5.0916886E-1,1.0342453E0,-1.23411E0,8.419732E-1,-1.2330556E0,-6.042533E-1,-1.1743723E0,-4.1129473E-1,1.0842187E0,-5.6080496E-1,3.8904342E-1,-5.735954E-1,-1.3897076E0,-7.1468586E-1,8.2510215E-1,9.566089E-1,-8.9382954E-2,1.3078308E0,-1.0941889E0,-1.0483214E-2,1.2776427E-1,-1.3353302E0,8.64317E-2,1.1447883E0,-2.7295336E-1,-3.4043707E-2,-1.3527368E-1,4.00773E-1,-1.1283324E0,-6.9859177E-1,-1.2803476E0,9.3138736E-1,-9.020353E-1,8.027437E-1,1.3038005E0,8.739477E-1,-9.135447E-1,1.1120646E0,2.2962175E-1,-9.107805E-1,1.0640285E0,3.924028E-2,-1.4215293E0,1.2588364E0,-1.105846E0,1.3537798E0,3.741759E-1,7.210358E-2,1.33389E-1,-9.205767E-2,1.1295762E-1,1.151546E-2,1.4090042E-1,-1.434976E-1,-2.8183067E-2,-1.3805468E-1,-6.5617063E-3,-3.273255E-2,1.32947E-1,9.843618E-2,-1.0907636E-1,9.13883E-2,-6.4393066E-2,1.2064386E-2,-1.2634407E-1,1.6454782E-2,-1.0730972E-1,-5.5917896E-2,-1.3504398E-1,-2.751539E-2,1.1329734E-1,-1.2695196E-1,1.1662818E-2,-3.4149952E-2,1.0323738E-1,1.3633901E-1,8.5316874E-2,-1.1097481E-1,1.3807163E-1,-1.1018455E-1,6.434012E-2,-9.341225E-2,1.1873927E-1,9.3465306E-2,1.960566E-3,-1.059498E-2,-1.06887914E-1,1.3080357E-1,-5.403393E-2,-1.4351127E-1,-6.4091764E-2,4.9629223E-2,1.3727446E-1,-3.0154753E-2,-1.3898851E-1,2.6029384E-2,1.3998505E-1,-3.2170534E-2,9.555866E-2],"categories":[],"categories_nodes":[],"categories_segments":[],"categories_sizes":[],"default_left":[0,0,0,0,0,0,0,0,0,0,0,0,0,0,0,0,0,0,0,0,0,0,0,0,0,0,0,0,0,0,0,0,0,0,0,0,0,0,0,0,0,0,0,0,0,0,0,0,0,0,0,0,0,0,0,0,0,0,0,0,0,0,0,0,0,0,0,0,0,0,0,0,0,0,0,0,0,0,0,0,0,0,0,0,0,0,0,0,0,0,0,0,0,0,0,0,0,0,0,0,0,0,0,0,0,0,0,0,0,0,0,0,0,0,0],"id":5,"left_children":[1,3,5,7,9,11,13,15,17,19,21,23,25,27,29,31,33,35,37,39,41,43,45,47,49,51,53,55,57,59,61,63,65,67,69,-1,-1,71,-1,73,75,-1,-1,77,79,81,83,85,87,89,91,93,95,97,99,101,103,-1,105,107,109,111,113,-1,-1,-1,-1,-1,-1,-1,-1,-1,-1,-1,-1,-1,-1,-1,-1,-1,-1,-1,-1,-1,-1,-1,-1,-1,-1,-1,-1,-1,-1,-1,-1,-1,-1,-1,-1,-1,-1,-1,-1,-1,-1,-1,-1,-1,-1,-1,-1,-1,-1,-1,-1],"loss_changes":[3.4070233E2,1.4996349E2,2.4629318E2,6.965004E1,3.469397E1,1.315694E2,1.981423E2,6.753255E1,3.1498924E1,3.4065254E1,2.4023834E1,7.973004E1,9.11944E1,4.4942947E1,8.610416E1,1.2044022E1,6.1185177E1,2.1555429E0,1.0883316E1,7.3476124E0,9.02174E-1,5.5118225E1,1.42789E1,2.7126904E1,2.2038544E1,6.145049E1,7.445782E1,1.0774281E2,6.587143E0,3.901442E1,3.3763817E1,7.729866E0,1.4435495E1,1.544775E0,1.1518349E1,0E0,0E0,2.4407349E0,0E0,4.942671E0,6.4804063E0,0E0,0E0,2.0052076E1,1.1707832E1,1.8608421E1,1.1624817E1,3.0285978E0,1.1275068E1,4.404461E1,4.4281006E0,2.5820404E1,2.9053818E1,1.9118454E1,7.880479E1,2.0358765E1,1.3812363E1,0E0,1.9004822E-1,5.958557E-2,8.994598E0,2.9499817E0,3.2255787E1,0E0,0E0,0E0,0E0,0E0,0E0,0E0,0E0,0E0,0E0,0E0,0E0,0E0,0E0,0E0,0E0,0E0,0E0,0E0,0E0,0E0,0E0,0E0,0E0,0E0,0E0,0E0,0E0,0E0,0E0,0E0,0E0,0E0,0E0,0E0,0E0,0E0,0E0,0E0,0E0,0E0,0E0,0E0,0E0,0E0,0E0,0E0,0E0,0E0,0E0,0E0,0E0],"parents":[2147483647,0,0,1,1,2,2,3,3,4,4,5,5,6,6,7,7,8,8,9,9,10,10,11,11,12,12,13,13,14,14,15,15,16,16,17,17,18,18,19,19,20,20,21,21,22,22,23,23,24,24,25,25,26,26,27,27,28,28,29,29,30,30,31,31,32,32,33,33,34,34,37,37,39,39,40,40,43,43,44,44,45,45,46,46,47,47,48,48,49,49,50,50,51,51,52,52,53,53,54,54,55,55,56,56,58,58,59,59,60,60,61,61,62,62],"right_children":[2,4,6,8,10,12,14,16,18,20,22,24,26,28,30,32,34,36,38,40,42,44,46,48,50,52,54,56,58,60,62,64,66,68,70,-1,-1,72,-1,74,76,-1,-1,78,80,82,84,86,88,90,92,94,96,98,100,102,104,-1,106,108,110,112,114,-1,-1,-1,-1,-1,-1,-1,-1,-1,-1,-1,-1,-1,-1,-1,-1,-1,-1,-1,-1,-1,-1,-1,-1,-1,-1,-1,-1,-1,-1,-1,-1,-1,-1,-1,-1,-1,-1,-1,-1,-1,-1,-1,-1,-1,-1,-1,-1,-1,-1,-1,-1],"split_conditions":[-4.3948552E-1,-5.6685203E-1,5.5303615E-1,8.6866754E-1,-3.461905E0,-4.0866625E-1,-1.0503471E0,-7.850257E-1,-1.6936142E0,2.1025808E0,1.5297681E-1,-7.5793535E-1,-2.7998636E0,1.3788731E0,-1.59056E0,-3.7359917E-1,1.0972767E-1,-4.071344E0,2.0827656E0,-6.1431754E-1,-2.1481636E0,-1.340331E0,3.6525694E-1,-2.4604063E0,1.2232023E0,-1.0129123E0,-1.5293103E0,-3.3833483E-1,-2.5702991E0,-2.2802725E0,-1.0088531E0,1.4032104E0,1.5297681E-1,-6.661607E-1,1.8418773E0,-1.0483214E-2,1.2776427E-1,4.0043378E-1,8.64317E-2,-2.574977E0,-6.597577E-1,-3.4043707E-2,-1.3527368E-1,2.3382058E0,-2.478453E0,1.1575599E0,-1.4473054E0,-2.8788471E0,7.057959E-2,-1.7296801E0,-1.0856022E0,2.1132405E-1,3.4757113E0,-2.1404421E0,-1.6456993E0,-2.5529518E0,1.849578E0,3.924028E-2,1.2710816E0,6.8265146E-1,-8.062898E-1,6.154048E-1,2.7745372E-1,7.210358E-2,1.33389E-1,-9.205767E-2,1.1295762E-1,1.151546E-2,1.4090042E-1,-1.434976E-1,-2.8183067E-2,-1.3805468E-1,-6.5617063E-3,-3.273255E-2,1.32947E-1,9.843618E-2,-1.0907636E-1,9.13883E-2,-6.4393066E-2,1.2064386E-2,-1.2634407E-1,1.6454782E-2,-1.0730972E-1,-5.5917896E-2,-1.3504398E-1,-2.751539E-2,1.1329734E-1,-1.2695196E-1,1.1662818E-2,-3.4149952E-2,1.0323738E-1,1.3633901E-1,8.5316874E-2,-1.1097481E-1,1.3807163E-1,-1.1018455E-1,6.434012E-2,-9.341225E-2,1.1873927E-1,9.3465306E-2,1.960566E-3,-1.059498E-2,-1.06887914E-1,1.3080357E-1,-5.403393E-2,-1.4351127E-1,-6.4091764E-2,4.9629223E-2,1.3727446E-1,-3.0154753E-2,-1.3898851E-1,2.6029384E-2,1.3998505E-1,-3.2170534E-2,9.555866E-2],"split_indices":[1,7,3,3,3,2,9,5,8,2,2,8,0,8,5,0,8,5,2,9,5,0,7,7,8,5,4,4,5,7,7,6,2,5,6,0,0,4,0,1,2,0,0,4,6,8,4,5,3,0,3,4,4,0,3,7,1,0,4,4,7,3,5,0,0,0,0,0,0,0,0,0,0,0,0,0,0,0,0,0,0,0,0,0,0,0,0,0,0,0,0,0,0,0,0,0,0,0,0,0,0,0,0,0,0,0,0,0,0,0,0,0,0,0,0],"split_type":[0,0,0,0,0,0,0,0,0,0,0,0,0,0,0,0,0,0,0,0,0,0,0,0,0,0,0,0,0,0,0,0,0,0,0,0,0,0,0,0,0,0,0,0,0,0,0,0,0,0,0,0,0,0,0,0,0,0,0,0,0,0,0,0,0,0,0,0,0,0,0,0,0,0,0,0,0,0,0,0,0,0,0,0,0,0,0,0,0,0,0,0,0,0,0,0,0,0,0,0,0,0,0,0,0,0,0,0,0,0,0,0,0,0,0],"sum_hessian":[2.3152437E3,6.4964E2,1.6656038E3,2.1532558E2,4.3431442E2,1.1774277E3,4.8817606E2,1.6422873E2,5.1096844E1,3.1593449E1,4.0272098E2,4.1139938E2,7.660283E2,2.976854E2,1.9049065E2,1.0901498E2,5.5213753E1,6.2916737E0,4.4805172E1,1.9837654E1,1.17557955E1,1.0278706E2,2.999339E2,3.8894394E1,3.72505E2,1.1884346E2,6.471848E2,1.9236676E2,1.0531864E2,4.7735924E1,1.4275473E2,9.679375E1,1.22212305E1,1.3146579E1,4.2067177E1,1.2079369E0,5.0837364E0,4.309031E1,1.7148628E0,1.5579472E1,4.258182E0,1.8443792E0,9.911416E0,3.530944E1,6.747762E1,5.602032E1,2.4391359E2,1.0170274E1,2.872412E1,1.652859E2,2.072191E2,2.3160719E1,9.568274E1,1.1584053E2,5.313443E2,1.5988951E2,3.2477245E1,1.6488136E0,1.0366982E2,7.529431E0,4.0206493E1,6.479047E1,7.796426E1,6.1379635E1,3.5414112E1,7.411917E0,4.8093133E0,1.1952025E0,1.1951376E1,2.9095203E1,1.2971973E1,4.152427E1,1.5660384E0,1.6505352E0,1.3928936E1,1.5978954E0,2.660287E0,2.3763254E1,1.15461855E1,6.5973244E0,6.08803E1,1.7121126E1,3.8899197E1,2.2401854E1,2.2151173E2,1.4037207E0,8.766553E0,2.092804E1,7.7960796E0,2.7544573E1,1.3774133E2,1.8122868E2,2.5990423E1,4.47071E0,1.8690008E1,8.561996E1,1.0062783E1,3.708321E0,1.1213221E2,1.21159E2,4.101853E2,2.6525677E1,1.3336383E2,2.8350187E1,4.1270585E0,1.01072624E2,2.5971994E0,1.6747793E0,5.854652E0,1.1031322E1,2.917517E1,2.888232E0,6.1902237E1,3.5691883E1,4.2272373E1],"tree_param":{"num_deleted":"0","num_feature":"10","num_nodes":"115","size_leaf_vector":"1"}},{"base_weights":[-4.0041393E-4,7.240912E-1,-1.7833546E-1,-1.9730632E-1,9.919853E-1,-7.453049E-1,3.6593284E-2,6.221938E-1,-7.303004E-1,1.1192194E0,8.3288476E-2,-1.6345288E-1,-1.0294424E0,1.5163396E-1,-8.143934E-1,-3.271073E-1,1.0417306E0,-1.314655E0,-2.5180653E-2,2.542576E-1,1.1696391E0,-9.214711E-1,7.6939803E-1,3.0569586E-1,-8.286363E-1,-5.891252E-1,-1.2398045E0,6.2754256E-1,2.6292246E-2,-1.1279643E0,5.6363153E-1,1.1127635E-1,-1.1286331E0,-4.2683992E-1,1.2043929E0,-1.3596013E-1,-1.6040684E-3,5.2893233E-1,-1.1325575E0,1.0920336E0,-1.4587225E-1,7.587625E-1,1.2447989E0,-1.1699197E0,4.2135385E-1,-4.12043E-2,1.0586787E0,-6.444832E-1,7.9072005E-1,4.6120107E-1,-1.2304405E0,2.2117669E-2,-8.802775E-1,-1.3407752E-1,-1.2605804E0,9.3706477E-1,-1.8419163E-1,-5.17267E-1,2.809899E-1,8.2728915E-2,-1.1598922E0,1.2637085E0,-9.524597E-1,-3.805686E-2,-1.3354854E-1,-9.871187E-2,4.126778E-2,7.191434E-2,1.3809216E-1,7.0738874E-2,-9.3380466E-2,-1.3047601E-1,1.1069498E-2,3.3556003E-2,1.19883396E-1,7.3331036E-2,-4.8724126E-2,1.1675929E-1,-4.0296666E-2,-4.1804694E-2,1.2581557E-1,-1.2488767E-1,-2.9897014E-2,9.0339586E-2,-2.0200962E-2,-1.231331E-1,3.6234714E-2,1.7894708E-3,1.1565556E-1,-8.104668E-2,1.0516834E-1,7.2701173E-3,1.22051895E-1,-1.0052496E-1,7.936125E-2,-1.3053511E-1,1.015809E-2,1.2637198E-1,-1.0028479E-1,-1.14911236E-1,-2.109426E-2,1.094709E-1,-8.876495E-2,2.8891593E-2,-1.2718043E-1,-3.3746094E-2,1.1906592E-1,-6.373279E-2,9.336232E-2,5.352659E-2,-7.459535E-2,-2.6658818E-2,5.4037612E-2,-1.1851337E-1,6.07734E-2,1.4332801E-1,-6.62454E-2,8.8794805E-2,-1.407594E-1],"categories":[],"categories_nodes":[],"categories_segments":[],"categories_sizes":[],"default_left":[0,0,0,0,0,0,0,0,0,0,0,0,0,0,0,0,0,0,0,0,0,0,0,0,0,0,0,0,0,0,0,0,0,0,0,0,0,0,0,0,0,0,0,0,0,0,0,0,0,0,0,0,0,0,0,0,0,0,0,0,0,0,0,0,0,0,0,0,0,0,0,0,0,0,0,0,0,0,0,0,0,0,0,0,0,0,0,0,0,0,0,0,0,0,0,0,0,0,0,0,0,0,0,0,0,0,0,0,0,0,0,0,0,0,0,0,0,0,0],"id":6,"left_children":[1,3,5,7,9,11,13,15,17,19,21,23,25,27,29,31,33,35,37,39,41,43,45,47,49,51,53,55,57,59,61,-1,63,65,67,-1,-1,69,71,73,75,77,79,81,83,85,87,89,91,93,95,97,99,101,103,105,107,109,111,-1,113,115,117,-1,-1,-1,-1,-1,-1,-1,-1,-1,-1,-1,-1,-1,-1,-1,-1,-1,-1,-1,-1,-1,-1,-1,-1,-1,-1,-1,-1,-1,-1,-1,-1,-1,-1,-1,-1,-1,-1,-1,-1,-1,-1,-1,-1,-1,-1,-1,-1,-1,-1,-1,-1,-1,-1,-1,-1],"loss_changes":[2.9130084E2,1.10173996E2,2.2109332E2,4.465592E1,3.983557E1,8.228235E1,1.2899771E2,1.6438602E1,2.5421421E1,1.2910553E1,3.0694786E1,5.1688988E1,3.0289581E1,6.920804E1,6.844381E1,1.6431465E1,7.2673492E0,1.9487877E0,1.8403057E1,6.1795816E0,7.884369E0,6.533189E0,6.2323465E0,4.538958E1,3.6036217E1,1.9626827E1,5.016327E0,6.0945274E1,1.2745874E2,8.96077E0,3.2785774E1,0E0,8.7567425E-1,2.080628E0,1.2095108E0,0E0,0E0,5.886509E0,2.2842703E0,7.623482E-2,4.269864E0,2.2684736E1,5.859253E0,6.9547844E-1,1.2528231E0,4.242249E0,1.9645386E0,1.0272932E1,1.9946358E1,9.076368E0,5.3666763E0,4.7746395E1,1.3190624E1,5.862676E0,4.218506E0,5.705272E1,3.4839474E1,7.110937E1,8.9176575E1,0E0,6.3654785E0,7.738594E0,9.600994E0,0E0,0E0,0E0,0E0,0E0,0E0,0E0,0E0,0E0,0E0,0E0,0E0,0E0,0E0,0E0,0E0,0E0,0E0,0E0,0E0,0E0,0E0,0E0,0E0,0E0,0E0,0E0,0E0,0E0,0E0,0E0,0E0,0E0,0E0,0E0,0E0,0E0,0E0,0E0,0E0,0E0,0E0,0E0,0E0,0E0,0E0,0E0,0E0,0E0,0E0,0E0,0E0,0E0,0E0,0E0,0E0],"parents":[2147483647,0,0,1,1,2,2,3,3,4,4,5,5,6,6,7,7,8,8,9,9,10,10,11,11,12,12,13,13,14,14,15,15,16,16,17,17,18,18,19,19,20,20,21,21,22,22,23,23,24,24,25,25,26,26,27,27,28,28,29,29,30,30,32,32,33,33,34,34,37,37,38,38,39,39,40,40,41,41,42,42,43,43,44,44,45,45,46,46,47,47,48,48,49,49,50,50,51,51,52,52,53,53,54,54,55,55,56,56,57,57,58,58,60,60,61,61,62,62],"right_children":[2,4,6,8,10,12,14,16,18,20,22,24,26,28,30,32,34,36,38,40,42,44,46,48,50,52,54,56,58,60,62,-1,64,66,68,-1,-1,70,72,74,76,78,80,82,84,86,88,90,92,94,96,98,100,102,104,106,108,110,112,-1,114,116,118,-1,-1,-1,-1,-1,-1,-1,-1,-1,-1,-1,-1,-1,-1,-1,-1,-1,-1,-1,-1,-1,-1,-1,-1,-1,-1,-1,-1,-1,-1,-1,-1,-1,-1,-1,-1,-1,-1,-1,-1,-1,-1,-1,-1,-1,-1,-1,-1,-1,-1,-1,-1,-1,-1,-1,-1],"split_conditions":[-7.989299E-1,-4.8072815E-1,-5.3120047E-1,-1.4620022E0,-2.2230374E-3,-2.5175014E-1,3.0104196E0,-1.7372086E0,-6.7841816E-1,-1.5376586E-1,2.0863803E-1,1.4537115E0,-2.9198087E-3,-1.9348607E0,-5.799857E-1,-3.3605897E0,-2.9549143E0,1.9563053E0,2.4017985E0,-2.1765845E0,-3.3380594E0,5.132656E-1,4.653578E-2,-1.09415196E-1,-2.043021E0,6.186929E-1,-4.321197E0,1.1919221E0,-1.9389257E0,-3.7004852E0,1.6303531E0,1.1127635E-1,-2.5765772E0,3.8872585E-1,-2.0476189E0,-1.3596013E-1,-1.6040684E-3,1.7766804E0,2.3990748E0,-2.4349284E0,-3.861858E-1,1.3805352E-1,-2.4221456E0,-2.250752E0,-5.1132464E-1,-3.0155425E0,-4.5185757E0,1.9436206E0,2.7314544E-1,-8.22906E0,2.434163E0,-5.820928E-1,1.1607215E0,1.5898994E0,-4.652718E0,-2.353896E0,1.5734794E0,3.7345564E-1,7.51279E-1,8.2728915E-2,3.8917155E0,2.6664E0,1.2632248E0,-3.805686E-2,-1.3354854E-1,-9.871187E-2,4.126778E-2,7.191434E-2,1.3809216E-1,7.0738874E-2,-9.3380466E-2,-1.3047601E-1,1.1069498E-2,3.3556003E-2,1.19883396E-1,7.3331036E-2,-4.8724126E-2,1.1675929E-1,-4.0296666E-2,-4.1804694E-2,1.2581557E-1,-1.2488767E-1,-2.9897014E-2,9.0339586E-2,-2.0200962E-2,-1.231331E-1,3.6234714E-2,1.7894708E-3,1.1565556E-1,-8.104668E-2,1.0516834E-1,7.2701173E-3,1.22051895E-1,-1.0052496E-1,7.936125E-2,-1.3053511E-1,1.015809E-2,1.2637198E-1,-1.0028479E-1,-1.14911236E-1,-2.109426E-2,1.094709E-1,-8.876495E-2,2.8891593E-2,-1.2718043E-1,-3.3746094E-2,1.1906592E-1,-6.373279E-2,9.336232E-2,5.352659E-2,-7.459535E-2,-2.6658818E-2,5.4037612E-2,-1.1851337E-1,6.07734E-2,1.4332801E-1,-6.62454E-2,8.8794805E-2,-1.407594E-1],"split_indices":[2,8,1,7,3,7,0,5,5,8,1,8,4,5,5,7,6,1,4,2,0,5,0,6,5,2,3,0,9,7,6,0,7,3,2,0,0,3,5,6,8,5,1,9,6,6,9,2,2,9,4,0,6,2,6,6,2,8,1,0,2,2,2,0,0,0,0,0,0,0,0,0,0,0,0,0,0,0,0,0,0,0,0,0,0,0,0,0,0,0,0,0,0,0,0,0,0,0,0,0,0,0,0,0,0,0,0,0,0,0,0,0,0,0,0,0,0,0,0],"split_type":[0,0,0,0,0,0,0,0,0,0,0,0,0,0,0,0,0,0,0,0,0,0,0,0,0,0,0,0,0,0,0,0,0,0,0,0,0,0,0,0,0,0,0,0,0,0,0,0,0,0,0,0,0,0,0,0,0,0,0,0,0,0,0,0,0,0,0,0,0,0,0,0,0,0,0,0,0,0,0,0,0,0,0,0,0,0,0,0,0,0,0,0,0,0,0,0,0,0,0,0,0,0,0,0,0,0,0,0,0,0,0,0,0,0,0,0,0,0,0],"sum_hessian":[2.257678E3,4.445501E2,1.8131278E3,1.0019659E2,3.4435352E2,4.9771558E2,1.3154122E3,3.9419754E1,6.0776833E1,3.0185645E2,4.249708E1,1.6382098E2,3.338946E2,1.1594885E3,1.559237E2,1.2149332E1,2.727042E1,3.276173E1,2.8015102E1,1.695925E1,2.848972E2,1.7104986E1,2.5392096E1,9.638313E1,6.743784E1,1.0917552E2,2.2471907E2,2.408815E2,9.1860706E2,1.2716798E2,2.8755722E1,4.205755E0,7.9435763E0,2.5573857E0,2.4713036E1,3.1620358E1,1.1413726E0,1.9020111E1,8.994992E0,4.9228287E0,1.2036422E1,4.577171E1,2.3912549E2,1.454301E1,2.561976E0,6.9039326E0,1.8488163E1,3.2461388E1,6.3921745E1,1.5982944E1,5.1454903E1,3.552295E1,7.365257E1,4.2819324E0,2.2043713E2,1.7427452E2,6.660698E1,2.9276852E2,6.258385E2,1.6429596E0,1.2552502E2,1.978581E1,8.969913E0,2.335876E0,5.607701E0,1.4283288E0,1.1290569E0,7.945607E0,1.6767427E1,1.7412188E1,1.6079228E0,7.857218E0,1.1377743E0,1.1214519E0,3.8013768E0,3.0452788E0,8.991142E0,3.38532E1,1.1918509E1,1.6640332E0,2.3746144E2,1.2936327E1,1.6066825E0,1.1914269E0,1.370549E0,1.2288003E0,5.6751323E0,1.6908762E0,1.6797287E1,3.0043562E1,2.417827E0,2.4373203E1,3.9548542E1,2.5794501E0,1.3403494E1,4.87342E1,2.720701E0,1.595851E1,1.9564438E1,5.2035854E1,2.161672E1,1.4556437E0,2.826289E0,1.4073306E0,2.190298E2,2.8866299E1,1.4540822E2,4.7700245E1,1.890673E1,5.2017334E1,2.4075117E2,2.0115723E2,4.246813E2,1.24082664E2,1.4423538E0,1.8420069E1,1.3657408E0,1.5899081E0,7.3800044E0],"tree_param":{"num_deleted":"0","num_feature":"10","num_nodes":"119","size_leaf_vector":"1"}},{"base_weights":[-4.2018562E-4,5.164559E-1,-2.181489E-1,-1.4744182E-1,7.948274E-1,-6.8845654E-1,-2.0842978E-3,8.6364466E-1,-5.3121907E-1,9.577971E-1,-3.19296E-1,1.3872276E-1,-9.010703E-1,-1.9444314E-1,5.593078E-1,7.431875E-2,1.2636226E0,-1.1939487E0,2.1936461E-1,1.230719E0,7.192331E-1,-9.4438016E-1,9.3124115E-1,4.495437E-1,-1.2343248E0,-5.68488E-1,-1.1507032E0,4.3111655E-1,-4.2483965E-1,-1.1907058E0,7.6778316E-1,1.0321649E0,-4.7565854E-1,-1.9967744E-2,1.320064E0,-7.0710784E-1,-1.3113121E0,9.347207E-1,-6.039953E-1,3.95142E-1,1.2450563E0,3.662576E-1,1.1713854E0,-1.1891469E0,-1.8307954E-1,-7.6611236E-2,1.0790052E0,9.7507983E-1,-5.449449E-1,-1.3536775E0,4.9470323E-3,-3.699261E-1,-1.1922706E0,-5.846491E-1,-1.2553775E0,-1.1469955E0,7.2110456E-1,-1.6097614E-1,-1.0485208E0,6.3761485E-1,-1.5704213E-1,1.1966536E0,8.216448E-2,1.9546626E-2,1.14510655E-1,1.839762E-2,-9.636199E-2,3.505606E-2,1.3459963E-1,-1.0724028E-1,-9.437349E-3,-6.2194844E-3,-1.3412617E-1,-3.625317E-2,1.01641E-1,-1.2822583E-2,-9.430738E-2,-7.4521855E-2,1.03103004E-1,5.8095235E-2,1.2576775E-1,1.19741954E-1,-2.5389977E-3,2.6301706E-2,1.3004878E-1,-1.276874E-1,-2.4621014E-3,3.1526115E-2,-1.3074306E-1,3.1928834E-2,1.2250552E-1,1.2290692E-1,-1.1646903E-2,-1.0165029E-1,9.7815424E-2,-4.6953212E-2,-1.3989647E-1,3.480115E-2,-6.344529E-2,-1.2911847E-1,3.290729E-2,-8.606116E-2,5.474006E-2,1.6947139E-2,-1.264219E-1,1.3828649E-2,-1.4770286E-1,-1.0043819E-1,9.249452E-2,-3.769463E-2,8.277308E-2,1.5722884E-2,-1.1556262E-1,-7.6351225E-2,1.2988584E-1,1.2532686E-1,-1.2726153E-1,6.3570745E-2,-7.162684E-2],"categories":[],"categories_nodes":[],"categories_segments":[],"categories_sizes":[],"default_left":[0,0,0,0,0,0,0,0,0,0,0,0,0,0,0,0,0,0,0,0,0,0,0,0,0,0,0,0,0,0,0,0,0,0,0,0,0,0,0,0,0,0,0,0,0,0,0,0,0,0,0,0,0,0,0,0,0,0,0,0,0,0,0,0,0,0,0,0,0,0,0,0,0,0,0,0,0,0,0,0,0,0,0,0,0,0,0,0,0,0,0,0,0,0,0,0,0,0,0,0,0,0,0,0,0,0,0,0,0,0,0,0,0,0,0,0,0,0,0],"id":7,"left_children":[1,3,5,7,9,11,13,15,17,19,21,23,25,27,29,31,33,35,37,39,41,43,45,47,49,51,53,55,57,59,61,63,65,-1,67,69,71,73,75,77,79,81,83,85,87,-1,89,91,93,95,-1,97,99,101,103,105,107,109,111,113,-1,115,117,-1,-1,-1,-1,-1,-1,-1,-1,-1,-1,-1,-1,-1,-1,-1,-1,-1,-1,-1,-1,-1,-1,-1,-1,-1,-1,-1,-1,-1,-1,-1,-1,-1,-1,-1,-1,-1,-1,-1,-1,-1,-1,-1,-1,-1,-1,-1,-1,-1,-1,-1,-1,-1,-1,-1,-1],"loss_changes":[2.4816492E2,1.20905914E2,1.5766388E2,7.570953E1,8.394589E1,8.602295E1,1.1502486E2,1.68718E1,7.049538E1,2.529654E1,4.7416542E1,4.354656E1,3.1615509E1,1.1452151E2,1.0008759E2,1.0571248E1,3.2040215E0,3.366005E0,4.0058E1,1.7380676E0,3.4199356E1,7.2712784E0,5.9291344E0,4.3845203E1,2.9570427E0,2.0445236E1,1.2363678E1,9.8775604E1,9.532685E1,2.1361782E1,7.15018E1,4.655342E-1,4.310231E0,0E0,3.9331055E-1,3.6514406E0,2.1377869E0,4.212269E0,5.0059757E0,4.107667E0,7.9937744E-1,4.016867E1,1.0759827E1,3.0568619E0,6.553033E0,0E0,1.7314758E0,1.5275074E1,2.2034752E1,3.554344E-2,0E0,2.4788406E1,6.4843597E0,1.1832973E1,2.5534363E0,1.4461388E1,6.47395E1,8.763562E1,2.243747E1,6.3233414E0,0E0,2.2526321E1,4.234369E1,0E0,0E0,0E0,0E0,0E0,0E0,0E0,0E0,0E0,0E0,0E0,0E0,0E0,0E0,0E0,0E0,0E0,0E0,0E0,0E0,0E0,0E0,0E0,0E0,0E0,0E0,0E0,0E0,0E0,0E0,0E0,0E0,0E0,0E0,0E0,0E0,0E0,0E0,0E0,0E0,0E0,0E0,0E0,0E0,0E0,0E0,0E0,0E0,0E0,0E0,0E0,0E0,0E0,0E0,0E0,0E0],"parents":[2147483647,0,0,1,1,2,2,3,3,4,4,5,5,6,6,7,7,8,8,9,9,10,10,11,11,12,12,13,13,14,14,15,15,16,16,17,17,18,18,19,19,20,20,21,21,22,22,23,23,24,24,25,25,26,26,27,27,28,28,29,29,30,30,31,31,32,32,34,34,35,35,36,36,37,37,38,38,39,39,40,40,41,41,42,42,43,43,44,44,46,46,47,47,48,48,49,49,51,51,52,52,53,53,54,54,55,55,56,56,57,57,58,58,59,59,61,61,62,62],"right_children":[2,4,6,8,10,12,14,16,18,20,22,24,26,28,30,32,34,36,38,40,42,44,46,48,50,52,54,56,58,60,62,64,66,-1,68,70,72,74,76,78,80,82,84,86,88,-1,90,92,94,96,-1,98,100,102,104,106,108,110,112,114,-1,116,118,-1,-1,-1,-1,-1,-1,-1,-1,-1,-1,-1,-1,-1,-1,-1,-1,-1,-1,-1,-1,-1,-1,-1,-1,-1,-1,-1,-1,-1,-1,-1,-1,-1,-1,-1,-1,-1,-1,-1,-1,-1,-1,-1,-1,-1,-1,-1,-1,-1,-1,-1,-1,-1,-1,-1,-1],"split_conditions":[-2.464148E-1,-1.2645088E-1,-2.8881902E-1,-2.0334058E0,-4.364178E-2,-1.1372849E0,1.2710816E0,-1.7372086E0,-6.450391E-1,-1.3063444E0,9.631174E-1,2.3586514E0,2.3076953E-1,-8.435646E-1,-2.661213E0,-3.8906348E0,-3.487129E0,-1.0668699E0,1.3146466E0,-2.4221456E0,-6.3065535E-1,-2.250752E0,-3.4010031E0,6.3866556E-1,2.1286573E0,6.820643E-1,3.6525694E-1,-2.7998636E0,1.3788731E0,-1.0310725E0,1.19521946E-1,-1.6801524E0,-1.3744426E0,-1.9967744E-2,-3.0496838E0,-1.6110364E0,-4.6048045E0,-1.159315E0,2.3382058E0,-2.5605088E-1,-5.2942567E0,-9.9627864E-1,4.3519276E-1,4.885229E-1,1.9214643E0,-7.6611236E-2,4.653578E-2,-7.2142804E-1,1.6246932E0,-1.1231222E-1,4.9470323E-3,-1.4473054E0,1.1717346E0,1.9509323E0,-4.872448E0,3.3686092E-1,-1.9743194E-1,2.8191604E-2,-1.9688096E0,9.047702E-1,-1.5704213E-1,4.142495E0,2.0330017E0,1.9546626E-2,1.14510655E-1,1.839762E-2,-9.636199E-2,3.505606E-2,1.3459963E-1,-1.0724028E-1,-9.437349E-3,-6.2194844E-3,-1.3412617E-1,-3.625317E-2,1.01641E-1,-1.2822583E-2,-9.430738E-2,-7.4521855E-2,1.03103004E-1,5.8095235E-2,1.2576775E-1,1.19741954E-1,-2.5389977E-3,2.6301706E-2,1.3004878E-1,-1.276874E-1,-2.4621014E-3,3.1526115E-2,-1.3074306E-1,3.1928834E-2,1.2250552E-1,1.2290692E-1,-1.1646903E-2,-1.0165029E-1,9.7815424E-2,-4.6953212E-2,-1.3989647E-1,3.480115E-2,-6.344529E-2,-1.2911847E-1,3.290729E-2,-8.606116E-2,5.474006E-2,1.6947139E-2,-1.264219E-1,1.3828649E-2,-1.4770286E-1,-1.0043819E-1,9.249452E-2,-3.769463E-2,8.277308E-2,1.5722884E-2,-1.1556262E-1,-7.6351225E-2,1.2988584E-1,1.2532686E-1,-1.2726153E-1,6.3570745E-2,-7.162684E-2],"split_indices":[2,8,1,7,3,7,4,5,5,2,1,8,4,3,6,7,6,7,4,1,7,9,6,3,2,3,7,0,8,7,5,1,6,0,2,5,4,3,4,4,0,4,8,1,4,0,0,5,2,2,0,4,9,6,5,2,8,5,5,2,0,1,8,0,0,0,0,0,0,0,0,0,0,0,0,0,0,0,0,0,0,0,0,0,0,0,0,0,0,0,0,0,0,0,0,0,0,0,0,0,0,0,0,0,0,0,0,0,0,0,0,0,0,0,0,0,0,0,0],"split_type":[0,0,0,0,0,0,0,0,0,0,0,0,0,0,0,0,0,0,0,0,0,0,0,0,0,0,0,0,0,0,0,0,0,0,0,0,0,0,0,0,0,0,0,0,0,0,0,0,0,0,0,0,0,0,0,0,0,0,0,0,0,0,0,0,0,0,0,0,0,0,0,0,0,0,0,0,0,0,0,0,0,0,0,0,0,0,0,0,0,0,0,0,0,0,0,0,0,0,0,0,0,0,0,0,0,0,0,0,0,0,0,0,0,0,0,0,0,0,0],"sum_hessian":[2.2031494E3,6.5258246E2,1.5505671E3,1.9292924E2,4.596532E2,4.8741815E2,1.0631489E3,5.2737755E1,1.4019148E2,4.011193E2,5.8533882E1,9.973687E1,3.8768127E2,7.9231793E2,2.7083105E2,1.813518E1,3.4602577E1,7.4139305E1,6.605218E1,1.8514778E2,2.1597153E2,3.9189655E1,1.9344229E1,8.1875145E1,1.786173E1,1.6762894E2,2.2005234E2,2.1303258E2,5.7928534E2,2.8327637E1,2.425034E2,6.295E0,1.18401785E1,1.1908472E0,3.341173E1,1.5765703E1,5.8373604E1,3.5271847E1,3.0780333E1,3.6050646E0,1.8154272E2,1.2230411E2,9.366741E1,2.9229914E1,9.959742E0,1.2140341E0,1.8130194E1,5.358025E1,2.8294893E1,1.6292597E1,1.5691347E0,1.2836191E2,3.9267017E1,3.5369255E1,1.8468309E2,3.261061E1,1.8042197E2,4.0795016E2,1.7133517E2,4.754697E0,2.357294E1,1.4872629E2,9.377712E1,1.073433E0,5.221567E0,5.299369E0,6.54081E0,1.248632E0,3.2163097E1,9.407202E0,6.3585014E0,1.438874E0,5.693473E1,1.8858595E0,3.338599E1,1.3381947E1,1.7398386E1,1.2290437E0,2.376021E0,4.262952E0,1.7727977E2,3.8513226E1,8.3790886E1,1.2033883E1,8.163353E1,2.7092485E1,2.1374283E0,7.39964E0,2.560101E0,3.437144E0,1.469305E1,4.3364014E1,1.0216234E1,2.185966E1,6.435234E0,1.347772E0,1.4944824E1,3.4476242E1,9.3885666E1,3.7011883E1,2.2551343E0,2.8629864E1,6.7393937E0,1.0268818E0,1.836562E2,6.781541E0,2.5829071E1,1.864732E1,1.6177464E2,3.3532214E2,7.2628006E1,1.3939702E1,1.5739546E2,1.4748771E0,3.2798195E0,1.4587416E2,2.8521233E0,5.5502075E1,3.8275047E1],"tree_param":{"num_deleted":"0","num_feature":"10","num_nodes":"119","size_leaf_vector":"1"}},{"base_weights":[-5.0987524E-4,6.6436744E-1,-1.4916673E-1,-3.72734E-1,8.66139E-1,-6.5767485E-1,3.440787E-2,7.708906E-1,-7.918656E-1,9.7139263E-1,-1.8857153E-2,-1.8536599E-1,-9.439021E-1,1.3552731E-1,-7.438837E-1,-4.607594E-1,1.1265063E0,-1.2238462E0,-1.5616E-1,1.2356219E0,7.528252E-1,-9.492826E-1,5.051572E-1,1.3173999E-1,-9.3513715E-1,-5.1417124E-1,-1.1325859E0,1.0026901E0,7.984613E-2,-1.0674831E0,4.026318E-1,3.3114195E-2,-7.998729E-2,2.5322068E-2,1.1751772E0,-1.2486362E0,-2.8461376E-2,6.89895E-1,-8.31504E-1,3.9364523E-1,1.2535833E0,2.7311182E-2,8.8141936E-1,-1.1255151E0,-1.8909055E-1,8.782904E-1,-6.697854E-2,-4.154554E-1,7.744484E-1,1.3182943E-1,-1.1998767E0,1.5478346E-1,-8.2630885E-1,-3.039399E-1,-1.1737732E0,1.3474618E0,-1.2091398E0,-7.101677E-2,4.265933E-1,7.8265384E-2,-1.1004131E0,1.1060238E0,-8.701979E-1,3.6363535E-2,1.2385813E-1,-1.2743486E-1,-4.1329667E-2,1.0004204E-1,-7.6807984E-3,-1.11588076E-1,2.8334465E-3,9.704437E-2,-6.361457E-2,2.2819022E-2,1.2643807E-1,-9.065799E-2,3.1372275E-2,6.7145512E-3,1.0080204E-1,-1.19699396E-1,-3.047778E-2,7.423454E-2,-8.600997E-2,1.001904E-1,-1.366271E-2,-5.108397E-2,7.718859E-2,-6.1654504E-2,1.2733305E-1,1.4347441E-2,1.4277267E-1,4.7687035E-2,-1.16611354E-1,-1.2409332E-1,-1.41237695E-2,1.2626737E-1,-8.299857E-2,-9.4392255E-2,2.8959913E-2,-9.563776E-2,8.542095E-2,3.4254454E-2,-1.1866242E-1,1.7129416E-3,1.4737685E-1,-1.2922531E-1,-2.437059E-2,-2.4142763E-2,5.3534307E-2,-1.0550398E-1,7.032164E-2,-1.1271795E-1,5.7745248E-2,1.263125E-1,-9.122389E-2,5.6844663E-2,-1.3539259E-1],"categories":[],"categories_nodes":[],"categories_segments":[],"categories_sizes":[],"default_left":[0,0,0,0,0,0,0,0,0,0,0,0,0,0,0,0,0,0,0,0,0,0,0,0,0,0,0,0,0,0,0,0,0,0,0,0,0,0,0,0,0,0,0,0,0,0,0,0,0,0,0,0,0,0,0,0,0,0,0,0,0,0,0,0,0,0,0,0,0,0,0,0,0,0,0,0,0,0,0,0,0,0,0,0,0,0,0,0,0,0,0,0,0,0,0,0,0,0,0,0,0,0,0,0,0,0,0,0,0,0,0,0,0,0,0,0,0],"id":8,"left_children":[1,3,5,7,9,11,13,15,17,19,21,23,25,27,29,31,33,35,37,39,41,43,45,47,49,51,53,55,57,59,61,-1,-1,-1,63,65,-1,67,69,71,73,75,77,79,81,83,85,87,89,91,93,95,97,99,101,103,105,107,109,-1,111,113,115,-1,-1,-1,-1,-1,-1,-1,-1,-1,-1,-1,-1,-1,-1,-1,-1,-1,-1,-1,-1,-1,-1,-1,-1,-1,-1,-1,-1,-1,-1,-1,-1,-1,-1,-1,-1,-1,-1,-1,-1,-1,-1,-1,-1,-1,-1,-1,-1,-1,-1,-1,-1,-1,-1],"loss_changes":[2.1211388E2,8.238315E1,1.6374881E2,3.1559479E1,3.0625458E1,6.272432E1,1.01595825E2,8.325726E0,1.2919897E1,1.6030151E1,1.798571E1,4.2161358E1,2.2888184E1,5.507036E1,5.5504135E1,1.527833E0,3.0260277E-1,3.0309677E-1,1.2265834E1,1.4935608E0,1.5209908E1,1.5668049E0,5.101766E0,4.4329998E1,1.503772E1,1.8951534E1,6.4798584E0,5.4117012E1,5.623168E1,7.9311066E0,3.086658E1,0E0,0E0,0E0,2.2370148E-1,5.878067E-2,0E0,2.3695698E0,2.9250174E0,3.1133225E0,1.130722E0,7.136141E0,1.4227409E1,2.5597095E-1,2.9521809E0,1.9395247E0,4.2121744E0,2.3959335E1,2.365926E1,5.6494184E0,1.6634216E0,3.325851E1,8.361462E0,9.003645E0,4.1181946E0,1.0059967E1,4.7215652E-1,7.757543E1,1.342982E2,0E0,5.789917E0,8.112999E0,9.43243E0,0E0,0E0,0E0,0E0,0E0,0E0,0E0,0E0,0E0,0E0,0E0,0E0,0E0,0E0,0E0,0E0,0E0,0E0,0E0,0E0,0E0,0E0,0E0,0E0,0E0,0E0,0E0,0E0,0E0,0E0,0E0,0E0,0E0,0E0,0E0,0E0,0E0,0E0,0E0,0E0,0E0,0E0,0E0,0E0,0E0,0E0,0E0,0E0,0E0,0E0,0E0,0E0,0E0,0E0],"parents":[2147483647,0,0,1,1,2,2,3,3,4,4,5,5,6,6,7,7,8,8,9,9,10,10,11,11,12,12,13,13,14,14,15,15,16,16,17,17,18,18,19,19,20,20,21,21,22,22,23,23,24,24,25,25,26,26,27,27,28,28,29,29,30,30,34,34,35,35,37,37,38,38,39,39,40,40,41,41,42,42,43,43,44,44,45,45,46,46,47,47,48,48,49,49,50,50,51,51,52,52,53,53,54,54,55,55,56,56,57,57,58,58,60,60,61,61,62,62],"right_children":[2,4,6,8,10,12,14,16,18,20,22,24,26,28,30,32,34,36,38,40,42,44,46,48,50,52,54,56,58,60,62,-1,-1,-1,64,66,-1,68,70,72,74,76,78,80,82,84,86,88,90,92,94,96,98,100,102,104,106,108,110,-1,112,114,116,-1,-1,-1,-1,-1,-1,-1,-1,-1,-1,-1,-1,-1,-1,-1,-1,-1,-1,-1,-1,-1,-1,-1,-1,-1,-1,-1,-1,-1,-1,-1,-1,-1,-1,-1,-1,-1,-1,-1,-1,-1,-1,-1,-1,-1,-1,-1,-1,-1,-1,-1,-1,-1,-1],"split_conditions":[-8.391457E-1,-1.0482634E0,-5.3120047E-1,-2.0334058E0,2.5531146E-1,-1.830885E-2,3.0104196E0,-2.444246E0,-6.7841816E-1,-1.7873706E0,-2.5194114E-1,1.9670252E0,-4.2744022E-2,-2.850604E0,-9.503812E-1,-3.8906348E0,-1.0262189E0,-1.0879717E0,1.1268007E0,-2.4874203E0,-1.0491224E-1,-1.7720405E0,1.3071704E-1,7.9731447E-1,-2.1677198E0,6.186929E-1,-3.608237E0,1.4713355E0,1.2710816E0,-3.7004852E0,1.6303531E0,3.3114195E-2,-7.998729E-2,2.5322068E-2,-2.7927294E0,2.3853483E0,-2.8461376E-2,2.253451E0,1.2913533E0,-9.2206794E-1,-4.652718E0,-2.7541187E0,-3.4007437E0,-9.905214E-1,1.0362957E0,7.455896E0,2.416893E0,1.9436206E0,6.6454977E-1,3.207987E0,2.765173E0,-5.820928E-1,2.9552004E0,9.271531E-1,-4.652718E0,-7.07875E-1,-4.474079E-1,6.145151E-1,-2.3106778E0,7.8265384E-2,3.8917155E0,3.036516E0,1.4770993E0,3.6363535E-2,1.2385813E-1,-1.2743486E-1,-4.1329667E-2,1.0004204E-1,-7.6807984E-3,-1.11588076E-1,2.8334465E-3,9.704437E-2,-6.361457E-2,2.2819022E-2,1.2643807E-1,-9.065799E-2,3.1372275E-2,6.7145512E-3,1.0080204E-1,-1.19699396E-1,-3.047778E-2,7.423454E-2,-8.600997E-2,1.001904E-1,-1.366271E-2,-5.108397E-2,7.718859E-2,-6.1654504E-2,1.2733305E-1,1.4347441E-2,1.4277267E-1,4.7687035E-2,-1.16611354E-1,-1.2409332E-1,-1.41237695E-2,1.2626737E-1,-8.299857E-2,-9.4392255E-2,2.8959913E-2,-9.563776E-2,8.542095E-2,3.4254454E-2,-1.1866242E-1,1.7129416E-3,1.4737685E-1,-1.2922531E-1,-2.437059E-2,-2.4142763E-2,5.3534307E-2,-1.0550398E-1,7.032164E-2,-1.1271795E-1,5.7745248E-2,1.263125E-1,-9.122389E-2,5.6844663E-2,-1.3539259E-1],"split_indices":[2,8,1,7,3,7,0,5,5,2,1,8,4,4,5,7,3,8,4,1,8,9,8,6,5,2,3,3,4,7,6,0,0,0,2,1,0,0,1,3,6,6,0,1,4,9,1,2,2,8,4,0,6,6,6,0,7,7,6,0,2,2,2,0,0,0,0,0,0,0,0,0,0,0,0,0,0,0,0,0,0,0,0,0,0,0,0,0,0,0,0,0,0,0,0,0,0,0,0,0,0,0,0,0,0,0,0,0,0,0,0,0,0,0,0,0,0],"split_type":[0,0,0,0,0,0,0,0,0,0,0,0,0,0,0,0,0,0,0,0,0,0,0,0,0,0,0,0,0,0,0,0,0,0,0,0,0,0,0,0,0,0,0,0,0,0,0,0,0,0,0,0,0,0,0,0,0,0,0,0,0,0,0,0,0,0,0,0,0,0,0,0,0,0,0,0,0,0,0,0,0,0,0,0,0,0,0,0,0,0,0,0,0,0,0,0,0,0,0,0,0,0,0,0,0,0,0,0,0,0,0,0,0,0,0,0,0],"sum_hessian":[2.144061E3,3.9114972E2,1.7529114E3,6.35674E1,3.2758234E2,4.642738E2,1.2886376E3,1.6823702E1,4.67437E1,2.9267636E2,3.4905952E1,1.7581152E2,2.8846228E2,1.1411938E3,1.4744362E2,3.7029903E0,1.3120711E1,2.7280573E1,1.9463127E1,1.3039124E2,1.6228513E2,1.2283734E1,2.262222E1,1.24134674E2,5.1676857E1,8.914895E1,1.9931334E2,6.7829475E1,1.0733644E3,1.1504232E2,3.2401295E1,1.11732E0,2.5856705E0,1.0201002E0,1.2100611E1,2.6258095E1,1.0224764E0,8.6300535E0,1.0833073E1,3.2021124E0,1.27189125E2,2.4616114E1,1.3766902E2,9.581843E0,2.7018912E0,1.3368496E1,9.253723E0,6.724043E1,5.6894238E1,1.0373023E1,4.1303833E1,2.8523405E1,6.062554E1,9.834407E0,1.8947893E2,5.902039E1,8.809084E0,7.4850134E2,3.2486307E2,1.6136504E0,1.1342867E2,2.0953184E1,1.1448112E1,1.3649619E0,1.0735649E1,2.4964132E1,1.2939633E0,5.925365E0,2.704689E0,7.916912E0,2.916161E0,2.0894284E0,1.1126841E0,1.5559622E0,1.2563316E2,5.269325E0,1.9346788E1,1.8730213E1,1.18938805E2,8.392495E0,1.1893482E0,1.0868751E0,1.6150161E0,1.192847E1,1.4400262E0,6.307385E0,2.9463384E0,6.0653168E1,6.587266E0,2.9561579E1,2.7332659E1,8.694343E0,1.6786807E0,3.9596012E1,1.707823E0,1.3289819E1,1.5233585E1,5.4984455E1,5.6410894E0,6.402058E0,3.4323485E0,1.3767647E0,1.8810216E2,5.216192E0,5.38042E1,7.7991424E0,1.0099413E0,5.8476215E2,1.637392E2,5.066737E1,2.741957E2,1.1197065E2,1.4580241E0,1.9787111E1,1.1660721E0,2.8366265E0,8.611485E0],"tree_param":{"num_deleted":"0","num_feature":"10","num_nodes":"117","size_leaf_vector":"1"}},{"base_weights":[-5.254589E-4,4.6257263E-1,-1.9014858E-1,-1.2922171E-1,7.134209E-1,-6.1280775E-1,-5.0707716E-3,7.871266E-1,-4.7382846E-1,8.640237E-1,-2.9936954E-1,1.3632517E-1,-8.0855024E-1,1.00658104E-1,-7.486021E-1,5.28592E-2,1.1771065E0,-1.0966473E0,2.0163018E-1,1.1389964E0,6.415198E-1,-8.707984E-1,8.4434247E-1,4.1502273E-1,-1.1384909E0,-4.9402246E-1,-1.0605673E0,4.0142286E-1,-1.23042464E-1,-1.0301453E0,2.6036775E-1,9.389589E-1,-4.4175676E-1,-1.6945204E-2,1.2326963E0,-7.551677E-1,-1.2706945E0,8.3781487E-1,-5.212246E-1,7.320721E-1,1.1824392E0,3.1118855E-1,1.0756093E0,-1.1114136E0,-1.6792408E-1,-7.1168244E-2,9.892826E-1,8.9737886E-1,-4.951104E-1,-1.2611248E0,7.218337E-3,-3.2883397E-1,-1.1811274E0,-5.1246697E-1,-1.1697354E0,1.2049237E-1,1.0154855E0,7.0493335E-1,-4.4147098E-1,-4.2540267E-1,-1.1434149E0,9.965109E-1,-9.238163E-1,1.04326084E-1,1.7786643E-2,1.2187759E-2,-9.221113E-2,5.1380076E-2,1.2854156E-1,-1.1356242E-1,7.326826E-2,-1.304246E-1,3.1004406E-3,2.814406E-2,1.04585566E-1,-6.0533907E-2,8.784758E-2,9.908239E-2,-2.9553348E-2,3.2848477E-2,1.18782185E-1,-2.476758E-2,8.3027005E-2,3.5369482E-2,1.2276566E-1,2.5098262E-2,-1.1743369E-1,2.8742557E-2,-1.1891464E-1,2.6610894E-2,1.1366141E-1,1.14134006E-1,-9.394464E-3,6.9002695E-2,-1.0503063E-1,-4.091203E-2,-1.306459E-1,3.5240185E-2,-5.8597095E-2,4.372104E-3,-1.2802891E-1,-9.526367E-2,1.1224077E-2,1.000522E-2,-1.1792518E-1,5.7796787E-2,-3.4556225E-2,-1.168498E-1,1.2397271E-1,-5.3497154E-2,8.625436E-2,-9.503514E-2,1.072186E-2,3.2541823E-2,-6.2234838E-2,-1.1866645E-1,-1.922514E-2,1.2913574E-1,-2.960727E-2,3.361448E-2,-1.2927516E-1],"categories":[],"categories_nodes":[],"categories_segments":[],"categories_sizes":[],"default_left":[0,0,0,0,0,0,0,0,0,0,0,0,0,0,0,0,0,0,0,0,0,0,0,0,0,0,0,0,0,0,0,0,0,0,0,0,0,0,0,0,0,0,0,0,0,0,0,0,0,0,0,0,0,0,0,0,0,0,0,0,0,0,0,0,0,0,0,0,0,0,0,0,0,0,0,0,0,0,0,0,0,0,0,0,0,0,0,0,0,0,0,0,0,0,0,0,0,0,0,0,0,0,0,0,0,0,0,0,0,0,0,0,0,0,0,0,0,0,0,0,0],"id":9,"left_children":[1,3,5,7,9,11,13,15,17,19,21,23,25,27,29,31,33,35,37,39,41,43,45,47,49,51,53,55,57,59,61,63,65,-1,67,69,71,73,75,77,79,81,83,85,87,-1,89,91,93,95,-1,97,99,101,103,105,107,109,111,113,115,117,119,-1,-1,-1,-1,-1,-1,-1,-1,-1,-1,-1,-1,-1,-1,-1,-1,-1,-1,-1,-1,-1,-1,-1,-1,-1,-1,-1,-1,-1,-1,-1,-1,-1,-1,-1,-1,-1,-1,-1,-1,-1,-1,-1,-1,-1,-1,-1,-1,-1,-1,-1,-1,-1,-1,-1,-1,-1,-1],"loss_changes":[1.8399261E2,9.0453354E1,1.1628236E2,5.786086E1,6.548689E1,6.6493E1,8.1428E1,1.4292025E1,5.6139908E1,2.2062408E1,3.74006E1,3.409635E1,2.7937637E1,6.106678E1,3.6899673E1,8.494732E0,2.656105E0,3.1598282E0,3.0149311E1,2.0571594E0,2.9520767E1,6.2235756E0,5.0340147E0,3.485956E1,2.6514072E0,1.795287E1,1.1275925E1,6.664818E1,1.3763257E2,6.4334793E0,2.6140663E1,3.641019E-1,3.499787E0,0E0,5.340576E-1,1.5473252E1,1.981575E0,3.727831E0,4.165286E0,5.2315264E0,2.8904724E-1,3.4913036E1,9.397003E0,2.7001038E0,5.3844976E0,0E0,1.6133938E0,1.2584808E1,1.9016495E1,7.2416306E-2,0E0,2.3269604E1,3.8131409E0,9.660748E0,2.1084747E0,5.7061775E1,6.0882797E1,2.8808617E1,1.0530781E2,2.7945685E0,3.247673E0,7.3649654E0,5.831132E0,0E0,0E0,0E0,0E0,0E0,0E0,0E0,0E0,0E0,0E0,0E0,0E0,0E0,0E0,0E0,0E0,0E0,0E0,0E0,0E0,0E0,0E0,0E0,0E0,0E0,0E0,0E0,0E0,0E0,0E0,0E0,0E0,0E0,0E0,0E0,0E0,0E0,0E0,0E0,0E0,0E0,0E0,0E0,0E0,0E0,0E0,0E0,0E0,0E0,0E0,0E0,0E0,0E0,0E0,0E0,0E0,0E0,0E0],"parents":[2147483647,0,0,1,1,2,2,3,3,4,4,5,5,6,6,7,7,8,8,9,9,10,10,11,11,12,12,13,13,14,14,15,15,16,16,17,17,18,18,19,19,20,20,21,21,22,22,23,23,24,24,25,25,26,26,27,27,28,28,29,29,30,30,31,31,32,32,34,34,35,35,36,36,37,37,38,38,39,39,40,40,41,41,42,42,43,43,44,44,46,46,47,47,48,48,49,49,51,51,52,52,53,53,54,54,55,55,56,56,57,57,58,58,59,59,60,60,61,61,62,62],"right_children":[2,4,6,8,10,12,14,16,18,20,22,24,26,28,30,32,34,36,38,40,42,44,46,48,50,52,54,56,58,60,62,64,66,-1,68,70,72,74,76,78,80,82,84,86,88,-1,90,92,94,96,-1,98,100,102,104,106,108,110,112,114,116,118,120,-1,-1,-1,-1,-1,-1,-1,-1,-1,-1,-1,-1,-1,-1,-1,-1,-1,-1,-1,-1,-1,-1,-1,-1,-1,-1,-1,-1,-1,-1,-1,-1,-1,-1,-1,-1,-1,-1,-1,-1,-1,-1,-1,-1,-1,-1,-1,-1,-1,-1,-1,-1,-1,-1,-1,-1,-1,-1],"split_conditions":[-2.464148E-1,-1.2645088E-1,-2.8881902E-1,-2.0334058E0,-4.364178E-2,-1.1372849E0,3.0104196E0,-1.7372086E0,-6.450391E-1,-1.3063444E0,9.631174E-1,2.3586514E0,2.3076953E-1,-9.503812E-1,-9.503812E-1,-3.8906348E0,-3.487129E0,-5.577492E-1,1.3146466E0,-1.0609261E0,-6.3065535E-1,-2.250752E0,-3.4010031E0,6.3866556E-1,2.1286573E0,9.9050623E-1,3.6525694E-1,8.311245E-1,5.710529E-1,-1.4620022E0,1.6303531E0,8.8914657E-1,-1.2538837E0,-1.6945204E-2,-1.1739396E0,-1.5050975E0,2.472628E0,2.8191604E-2,2.672893E0,-9.2206794E-1,-4.652718E0,-1.863472E0,6.2976015E-1,-6.524301E-2,1.9214643E0,-7.1168244E-2,4.653578E-2,-7.2142804E-1,-1.008727E0,-1.1231222E-1,7.218337E-3,-1.4473054E0,-2.0389624E0,1.0602069E0,-4.652718E0,-2.9204443E-1,-2.8947873E0,-1.159315E0,-6.911022E-1,-1.0148044E0,1.1356323E-1,2.2889235E0,1.4770993E0,1.04326084E-1,1.7786643E-2,1.2187759E-2,-9.221113E-2,5.1380076E-2,1.2854156E-1,-1.1356242E-1,7.326826E-2,-1.304246E-1,3.1004406E-3,2.814406E-2,1.04585566E-1,-6.0533907E-2,8.784758E-2,9.908239E-2,-2.9553348E-2,3.2848477E-2,1.18782185E-1,-2.476758E-2,8.3027005E-2,3.5369482E-2,1.2276566E-1,2.5098262E-2,-1.1743369E-1,2.8742557E-2,-1.1891464E-1,2.6610894E-2,1.1366141E-1,1.14134006E-1,-9.394464E-3,6.9002695E-2,-1.0503063E-1,-4.091203E-2,-1.306459E-1,3.5240185E-2,-5.8597095E-2,4.372104E-3,-1.2802891E-1,-9.526367E-2,1.1224077E-2,1.000522E-2,-1.1792518E-1,5.7796787E-2,-3.4556225E-2,-1.168498E-1,1.2397271E-1,-5.3497154E-2,8.625436E-2,-9.503514E-2,1.072186E-2,3.2541823E-2,-6.2234838E-2,-1.1866645E-1,-1.922514E-2,1.2913574E-1,-2.960727E-2,3.361448E-2,-1.2927516E-1],"split_indices":[2,8,1,7,3,7,0,5,5,2,1,8,4,5,5,7,6,4,4,1,7,9,6,3,2,3,7,4,8,7,6,3,6,0,3,5,1,5,1,3,6,0,8,8,4,0,0,5,8,2,0,4,8,2,6,3,6,3,9,6,4,2,2,0,0,0,0,0,0,0,0,0,0,0,0,0,0,0,0,0,0,0,0,0,0,0,0,0,0,0,0,0,0,0,0,0,0,0,0,0,0,0,0,0,0,0,0,0,0,0,0,0,0,0,0,0,0,0,0,0,0],"split_type":[0,0,0,0,0,0,0,0,0,0,0,0,0,0,0,0,0,0,0,0,0,0,0,0,0,0,0,0,0,0,0,0,0,0,0,0,0,0,0,0,0,0,0,0,0,0,0,0,0,0,0,0,0,0,0,0,0,0,0,0,0,0,0,0,0,0,0,0,0,0,0,0,0,0,0,0,0,0,0,0,0,0,0,0,0,0,0,0,0,0,0,0,0,0,0,0,0,0,0,0,0,0,0,0,0,0,0,0,0,0,0,0,0,0,0,0,0,0,0,0,0],"sum_hessian":[2.0932495E3,6.076952E2,1.4855543E3,1.8105055E2,4.2664462E2,4.51701E2,1.0338534E3,4.9128418E1,1.3192213E2,3.7154282E2,5.5101826E1,9.363826E1,3.5806274E2,9.059005E2,1.2795287E2,1.7435608E1,3.169281E1,6.8311104E1,6.361104E1,1.6433582E2,2.07207E2,3.6902817E1,1.8199005E1,7.739317E1,1.6245087E1,1.6059444E2,1.9746829E2,3.8605554E2,5.19845E2,1.0002179E2,2.7931087E1,5.9241643E0,1.1511443E1,1.1752928E0,3.0517517E1,2.4865005E1,4.34461E1,3.3749268E1,2.9861773E1,1.7573915E1,1.467619E2,1.1864102E2,8.856598E1,2.7058598E1,9.844222E0,1.2175585E0,1.6981447E1,5.0593456E1,2.6799719E1,1.471307E1,1.5320163E0,1.306606E2,2.9933836E1,3.3744026E1,1.6372426E2,2.6569684E2,1.20358696E2,1.4405647E2,3.757885E2,1.6529104E1,8.349268E1,1.7321642E1,1.0609446E1,4.884095E0,1.0400691E0,5.6399555E0,5.871487E0,2.819255E0,2.7698261E1,1.9990097E1,4.874909E0,4.2352497E1,1.0935992E0,9.825428E0,2.392384E1,2.870432E1,1.1574517E0,1.4067504E1,3.5064125E0,1.3078086E0,1.4545409E2,5.7383E1,6.1258022E1,1.5986919E1,7.2579056E1,1.0626075E0,2.5995989E1,7.305391E0,2.5388308E0,3.3490243E0,1.3632423E1,4.0480118E1,1.011334E1,8.472092E0,1.8327625E1,1.2497605E0,1.3463309E1,3.570266E1,9.495795E1,2.2837682E0,2.7650068E1,1.94879E1,1.4256127E1,1.1471251E0,1.6257713E2,1.3396133E2,1.317355E2,1.0815085E1,1.0954361E2,1.5976506E1,1.2807996E2,1.9458719E2,1.8120132E2,3.2991912E0,1.3229913E1,7.962454E1,3.8681417E0,1.41051235E1,3.2165194E0,2.4231064E0,8.186339E0],"tree_param":{"num_deleted":"0","num_feature":"10","num_nodes":"121","size_leaf_vector":"1"}},{"base_weights":[-5.548709E-4,4.359669E-1,-1.7641501E-1,-1.19944066E-1,6.724815E-1,-6.8369055E-1,-4.011492E-2,4.7522163E-1,-5.952866E-1,8.3424026E-1,-1.7904957E-1,1.646257E-1,-8.601225E-1,2.3531372E-2,-9.8412234E-1,-2.7268082E-1,8.377414E-1,-1.2146103E0,6.923756E-3,4.9927863E-1,1.0036461E0,-6.884445E-1,9.036246E-1,6.1364967E-1,-7.0724934E-1,2.3144382E-1,-9.101962E-1,-5.3890014E-1,1.04906306E-1,-1.1546332E0,7.260861E-1,8.8965297E-1,-6.3867193E-1,9.460087E-1,-1.0062541E-1,4.9183196E-3,-1.2508225E-1,4.0576467E-1,-9.714297E-1,-1.116316E-1,8.8873243E-1,2.2780396E-1,1.0904728E0,-1.0129346E0,1.7017474E-2,2.560157E-2,1.1313728E0,9.393082E-1,-6.3244814E-1,-1.082771E0,5.672847E-1,-7.693384E-1,9.970321E-1,-6.38492E-1,-1.0786649E0,1.06968574E-1,-9.7770214E-1,5.323243E-1,-8.6526476E-2,-8.409134E-2,-1.2015258E0,1.1356689E-1,-7.085303E-2,1.4618263E-2,9.974005E-2,-9.9134736E-2,-1.6245386E-2,-6.8345806E-4,1.1039611E-1,-7.0889853E-4,9.328215E-2,-1.1571949E-1,-7.119106E-4,1.0626062E-1,-5.0978165E-2,-3.6207713E-2,9.650617E-2,9.089097E-2,-8.087245E-2,1.1610778E-1,3.1140009E-2,4.043038E-2,-1.1304243E-1,-5.9208255E-2,7.774895E-2,-9.770488E-2,1.0002114E-1,1.1783993E-1,3.0742574E-2,1.09341525E-1,-4.9039617E-2,-8.693067E-2,4.9997408E-2,-1.2294489E-1,2.4149831E-2,8.733125E-2,-2.9411796E-2,3.4742277E-2,-1.1206384E-1,-1.5187806E-2,1.2993686E-1,-7.8434415E-2,3.225623E-2,1.0378953E-2,-1.0953269E-1,-8.9790754E-2,7.882216E-2,-1.1291023E-1,4.4156197E-2,-7.3336765E-2,6.727483E-2,1.8828643E-2,-7.405441E-2,-8.5419595E-2,1.0404688E-1,-3.0943692E-2,-1.2113722E-1],"categories":[],"categories_nodes":[],"categories_segments":[],"categories_sizes":[],"default_left":[0,0,0,0,0,0,0,0,0,0,0,0,0,0,0,0,0,0,0,0,0,0,0,0,0,0,0,0,0,0,0,0,0,0,0,0,0,0,0,0,0,0,0,0,0,0,0,0,0,0,0,0,0,0,0,0,0,0,0,0,0,0,0,0,0,0,0,0,0,0,0,0,0,0,0,0,0,0,0,0,0,0,0,0,0,0,0,0,0,0,0,0,0,0,0,0,0,0,0,0,0,0,0,0,0,0,0,0,0,0,0,0,0,0,0,0,0],"id":10,"left_children":[1,3,5,7,9,11,13,15,17,19,21,23,25,27,29,31,33,35,37,39,41,43,45,47,49,51,53,55,57,59,61,63,65,67,-1,-1,-1,69,71,73,75,77,79,81,83,85,87,89,91,93,95,97,99,101,103,105,107,109,111,113,115,-1,-1,-1,-1,-1,-1,-1,-1,-1,-1,-1,-1,-1,-1,-1,-1,-1,-1,-1,-1,-1,-1,-1,-1,-1,-1,-1,-1,-1,-1,-1,-1,-1,-1,-1,-1,-1,-1,-1,-1,-1,-1,-1,-1,-1,-1,-1,-1,-1,-1,-1,-1,-1,-1,-1,-1],"loss_changes":[1.5619951E2,7.690782E1,1.0025602E2,4.9862576E1,5.6633606E1,4.6107162E1,6.8775185E1,2.1477753E1,3.651298E1,1.9063522E1,3.717932E1,2.1463133E1,1.4115707E1,4.916505E1,2.192173E1,1.1773754E1,1.15395355E1,2.2700577E0,2.0145893E1,2.8125278E1,1.5109833E1,1.04660225E1,4.298567E0,1.5199224E1,9.576032E0,9.92716E0,1.0454514E1,3.8587345E1,7.681182E1,3.2187805E0,5.017028E0,3.9298344E-1,3.301278E0,7.624058E0,0E0,0E0,0E0,7.984725E0,2.6705427E0,2.239728E1,7.228077E0,1.7827656E1,1.0902557E1,5.665619E0,7.577006E0,6.332685E0,3.0265808E-1,6.911625E0,2.5950928E0,3.1730175E0,1.5531824E0,2.643687E0,2.7015176E0,1.3656761E1,3.0457306E0,3.8929756E1,1.7893341E1,5.2100197E1,1.1675811E2,4.2233443E0,1.8099976E-1,0E0,0E0,0E0,0E0,0E0,0E0,0E0,0E0,0E0,0E0,0E0,0E0,0E0,0E0,0E0,0E0,0E0,0E0,0E0,0E0,0E0,0E0,0E0,0E0,0E0,0E0,0E0,0E0,0E0,0E0,0E0,0E0,0E0,0E0,0E0,0E0,0E0,0E0,0E0,0E0,0E0,0E0,0E0,0E0,0E0,0E0,0E0,0E0,0E0,0E0,0E0,0E0,0E0,0E0,0E0,0E0],"parents":[2147483647,0,0,1,1,2,2,3,3,4,4,5,5,6,6,7,7,8,8,9,9,10,10,11,11,12,12,13,13,14,14,15,15,16,16,17,17,18,18,19,19,20,20,21,21,22,22,23,23,24,24,25,25,26,26,27,27,28,28,29,29,30,30,31,31,32,32,33,33,37,37,38,38,39,39,40,40,41,41,42,42,43,43,44,44,45,45,46,46,47,47,48,48,49,49,50,50,51,51,52,52,53,53,54,54,55,55,56,56,57,57,58,58,59,59,60,60],"right_children":[2,4,6,8,10,12,14,16,18,20,22,24,26,28,30,32,34,36,38,40,42,44,46,48,50,52,54,56,58,60,62,64,66,68,-1,-1,-1,70,72,74,76,78,80,82,84,86,88,90,92,94,96,98,100,102,104,106,108,110,112,114,116,-1,-1,-1,-1,-1,-1,-1,-1,-1,-1,-1,-1,-1,-1,-1,-1,-1,-1,-1,-1,-1,-1,-1,-1,-1,-1,-1,-1,-1,-1,-1,-1,-1,-1,-1,-1,-1,-1,-1,-1,-1,-1,-1,-1,-1,-1,-1,-1,-1,-1,-1,-1,-1,-1,-1,-1],"split_conditions":[-2.464148E-1,-1.2645088E-1,-8.209363E-1,-1.0668699E0,-1.9698587E-1,-1.0821328E0,4.005116E0,-1.7372086E0,-7.6707983E-1,1.1395245E0,1.2416123E0,6.154048E-1,-4.137513E0,-2.7998636E0,-3.96666E-1,-3.8906348E0,7.888942E0,-4.6048045E0,2.3382058E0,-1.5751114E0,-4.253881E0,-1.809046E0,4.653578E-2,2.2291167E0,1.6500283E0,-5.7293243E0,1.1356323E-1,-1.3501781E-1,-7.968279E-1,-5.524019E0,-2.1756165E-2,-1.6801524E0,-9.342818E-1,-9.607498E-1,-1.0062541E-1,4.9183196E-3,-1.2508225E-1,7.225014E-1,1.9248608E0,-1.6544553E0,-1.1118486E0,-2.734671E0,-8.435646E-1,-2.1756165E-2,-8.1831634E-2,-1.3744426E0,3.9999373E0,-2.6363598E-2,2.0046105E0,-3.4445426E0,-2.869249E-1,1.540826E0,-1.09415196E-1,-1.0164486E0,-3.7319696E0,-1.3744426E0,3.4757113E0,-1.7810558E-1,1.3788731E0,-3.1593091E0,-2.9549143E0,1.1356689E-1,-7.085303E-2,1.4618263E-2,9.974005E-2,-9.9134736E-2,-1.6245386E-2,-6.8345806E-4,1.1039611E-1,-7.0889853E-4,9.328215E-2,-1.1571949E-1,-7.119106E-4,1.0626062E-1,-5.0978165E-2,-3.6207713E-2,9.650617E-2,9.089097E-2,-8.087245E-2,1.1610778E-1,3.1140009E-2,4.043038E-2,-1.1304243E-1,-5.9208255E-2,7.774895E-2,-9.770488E-2,1.0002114E-1,1.1783993E-1,3.0742574E-2,1.09341525E-1,-4.9039617E-2,-8.693067E-2,4.9997408E-2,-1.2294489E-1,2.4149831E-2,8.733125E-2,-2.9411796E-2,3.4742277E-2,-1.1206384E-1,-1.5187806E-2,1.2993686E-1,-7.8434415E-2,3.225623E-2,1.0378953E-2,-1.0953269E-1,-8.9790754E-2,7.882216E-2,-1.1291023E-1,4.4156197E-2,-7.3336765E-2,6.727483E-2,1.8828643E-2,-7.405441E-2,-8.5419595E-2,1.0404688E-1,-3.0943692E-2,-1.2113722E-1],"split_indices":[2,8,1,7,3,7,0,5,5,8,1,3,3,0,5,7,9,4,4,0,0,9,0,8,2,0,4,5,3,4,8,1,8,3,0,0,0,5,5,2,1,3,3,8,7,6,1,5,2,9,8,2,6,9,6,6,4,8,8,5,6,0,0,0,0,0,0,0,0,0,0,0,0,0,0,0,0,0,0,0,0,0,0,0,0,0,0,0,0,0,0,0,0,0,0,0,0,0,0,0,0,0,0,0,0,0,0,0,0,0,0,0,0,0,0,0,0],"split_type":[0,0,0,0,0,0,0,0,0,0,0,0,0,0,0,0,0,0,0,0,0,0,0,0,0,0,0,0,0,0,0,0,0,0,0,0,0,0,0,0,0,0,0,0,0,0,0,0,0,0,0,0,0,0,0,0,0,0,0,0,0,0,0,0,0,0,0,0,0,0,0,0,0,0,0,0,0,0,0,0,0,0,0,0,0,0,0,0,0,0,0,0,0,0,0,0,0,0,0,0,0,0,0,0,0,0,0,0,0,0,0,0,0,0,0,0,0],"sum_hessian":[2.032726E3,5.833212E2,1.4494048E3,1.7425047E2,4.0907074E2,3.061126E2,1.1432921E3,7.737333E1,9.687715E1,3.4378488E2,6.528585E1,5.271524E1,2.5339737E2,1.0719921E3,7.130012E1,2.534099E1,5.2032337E1,4.7258625E1,4.9618523E1,1.1679552E2,2.2698938E2,4.4644756E1,2.0641096E1,3.4990814E1,1.7724428E1,1.0955441E1,2.4244193E2,1.3478548E2,9.372066E2,6.513127E1,6.1688447E0,5.725822E0,1.961517E1,4.960673E1,2.4256027E0,1.3064327E0,4.5952194E1,3.566457E1,1.3953955E1,4.5747623E1,7.104789E1,2.3210978E1,2.037784E2,3.0280737E1,1.4364019E1,4.480423E0,1.6160673E1,2.7936113E1,7.054699E0,1.3806899E1,3.9175298E0,4.7462335E0,6.209208E0,9.462381E1,1.4781812E2,5.48332E1,7.995227E1,2.893608E2,6.4784576E2,2.8504257E0,6.228085E1,4.9608917E0,1.2079526E0,1.0230908E0,4.702731E0,1.0647893E1,8.967277E0,7.190002E0,4.241673E1,2.0552195E1,1.5112375E1,1.1532338E1,2.421617E0,1.1161345E1,3.458628E1,3.870947E0,6.717695E1,1.4081262E1,9.129716E0,1.8639563E2,1.7382767E1,2.1312327E0,2.8149504E1,8.098752E0,6.2652674E0,2.2072084E0,2.2732146E0,1.4881149E1,1.2795249E0,2.5430222E1,2.5058925E0,6.0265317E0,1.0281676E0,1.2494583E1,1.3123155E0,2.880395E0,1.037135E0,1.1383919E0,3.6078417E0,1.397232E0,4.811976E0,8.23153E1,1.2308514E1,1.9813163E0,1.4583679E2,2.2025969E1,3.280723E1,7.2430214E1,7.522061E0,2.8475775E1,2.6088504E2,4.566692E2,1.9117657E2,1.8345406E0,1.0158851E0,1.0339087E0,6.124694E1],"tree_param":{"num_deleted":"0","num_feature":"10","num_nodes":"117","size_leaf_vector":"1"}},{"base_weights":[-6.3860585E-4,5.72755E-1,-1.194907E-1,-3.419553E-1,7.510117E-1,-5.069152E-1,4.5130704E-2,7.853104E-1,-6.6866434E-1,1.1089456E0,5.00771E-1,-6.88757E-1,1.04202926E-1,1.1217201E-1,-8.267431E-1,-1.8636033E-2,1.0356635E0,-9.362676E-1,2.9938775E-1,1.1295261E0,-3.1605076E-2,1.7914826E-1,8.471612E-1,-3.421617E-1,-8.645149E-1,-9.254079E-1,6.342664E-1,8.5539937E-1,6.0702257E-2,-1.0310761E0,7.374011E-1,7.5529024E-2,-5.9787866E-2,1.1222996E-1,1.7027264E-2,-1.1138172E0,-5.1051205E-1,-7.555574E-1,7.200706E-1,-3.204732E-2,1.1467682E0,4.0838036E-1,-7.206478E-1,6.533763E-2,1.0006617E0,-5.0053144E-1,6.727568E-1,-3.475828E-1,-1.0348972E0,5.8272254E-1,-1.0954752E0,1.096667E0,-6.670578E-1,1.1814127E0,-1.1328257E0,-5.121212E-2,5.2633905E-1,9.8495536E-2,-1.0772396E0,1.1148056E-1,-8.08721E-2,-1.2052663E-1,-4.0860426E-2,-1.0175246E-1,-8.051678E-3,-2.1057218E-2,-9.261038E-2,1.0204966E-1,1.2070428E-2,1.16087E-2,1.1627855E-1,9.896802E-2,4.953317E-3,6.5357305E-2,-8.7735936E-2,-8.3000295E-2,1.04874365E-1,1.0473756E-1,4.8135437E-2,4.557129E-2,-6.5644376E-2,1.2954389E-1,-1.1389052E-1,-9.216963E-2,5.2025076E-2,-7.0780896E-2,-1.160448E-1,-3.544266E-2,9.602975E-2,4.84712E-2,-1.17499925E-1,1.4848134E-1,5.6598097E-2,4.1311085E-2,-1.0587555E-1,-1.9733569E-2,1.298108E-1,-2.4504788E-2,-1.2068921E-1,4.825446E-2,-1.9720525E-2,-9.821718E-2,7.2281264E-2,-1.1187479E-2,-1.1058185E-1],"categories":[],"categories_nodes":[],"categories_segments":[],"categories_sizes":[],"default_left":[0,0,0,0,0,0,0,0,0,0,0,0,0,0,0,0,0,0,0,0,0,0,0,0,0,0,0,0,0,0,0,0,0,0,0,0,0,0,0,0,0,0,0,0,0,0,0,0,0,0,0,0,0,0,0,0,0,0,0,0,0,0,0,0,0,0,0,0,0,0,0,0,0,0,0,0,0,0,0,0,0,0,0,0,0,0,0,0,0,0,0,0,0,0,0,0,0,0,0,0,0,0,0,0,0],"id":11,"left_children":[1,3,5,7,9,11,13,15,17,19,21,23,25,27,29,31,33,35,37,39,-1,41,43,45,47,49,51,53,55,57,59,-1,-1,-1,-1,61,63,65,67,-1,69,71,73,75,77,79,81,83,85,87,89,91,93,95,97,99,101,-1,103,-1,-1,-1,-1,-1,-1,-1,-1,-1,-1,-1,-1,-1,-1,-1,-1,-1,-1,-1,-1,-1,-1,-1,-1,-1,-1,-1,-1,-1,-1,-1,-1,-1,-1,-1,-1,-1,-1,-1,-1,-1,-1,-1,-1,-1,-1],"loss_changes":[1.3511954E2,5.5762154E1,1.04765465E2,2.1225264E1,2.4990479E1,5.4503525E1,6.751507E1,2.6538334E0,1.1708973E1,3.7744293E0,1.8751537E1,2.2707794E1,6.2363293E1,4.0955788E1,2.7121716E1,2.2853281E0,5.585661E-1,2.0623837E0,5.120503E0,3.244812E0,0E0,1.8703741E1,9.706486E0,2.1025427E1,2.16512E1,1.0609428E1,4.6052513E1,4.6292004E1,5.2328087E1,7.889168E0,6.8026457E0,0E0,0E0,0E0,0E0,1.0369835E0,2.5536528E0,1.23586535E-1,1.2964959E0,0E0,1.7462463E0,1.4921944E1,4.553872E0,1.3578431E1,1.145256E0,1.6984533E1,2.1555931E1,3.2095917E1,6.876541E0,1.9653627E0,5.003376E0,1.0684296E1,9.055059E0,9.921417E0,3.802395E-1,6.3219868E1,5.837648E1,0E0,1.8682938E0,0E0,0E0,0E0,0E0,0E0,0E0,0E0,0E0,0E0,0E0,0E0,0E0,0E0,0E0,0E0,0E0,0E0,0E0,0E0,0E0,0E0,0E0,0E0,0E0,0E0,0E0,0E0,0E0,0E0,0E0,0E0,0E0,0E0,0E0,0E0,0E0,0E0,0E0,0E0,0E0,0E0,0E0,0E0,0E0,0E0,0E0],"parents":[2147483647,0,0,1,1,2,2,3,3,4,4,5,5,6,6,7,7,8,8,9,9,10,10,11,11,12,12,13,13,14,14,15,15,16,16,17,17,18,18,19,19,21,21,22,22,23,23,24,24,25,25,26,26,27,27,28,28,29,29,30,30,35,35,36,36,37,37,38,38,40,40,41,41,42,42,43,43,44,44,45,45,46,46,47,47,48,48,49,49,50,50,51,51,52,52,53,53,54,54,55,55,56,56,58,58],"right_children":[2,4,6,8,10,12,14,16,18,20,22,24,26,28,30,32,34,36,38,40,-1,42,44,46,48,50,52,54,56,58,60,-1,-1,-1,-1,62,64,66,68,-1,70,72,74,76,78,80,82,84,86,88,90,92,94,96,98,100,102,-1,104,-1,-1,-1,-1,-1,-1,-1,-1,-1,-1,-1,-1,-1,-1,-1,-1,-1,-1,-1,-1,-1,-1,-1,-1,-1,-1,-1,-1,-1,-1,-1,-1,-1,-1,-1,-1,-1,-1,-1,-1,-1,-1,-1,-1,-1,-1],"split_conditions":[-8.391457E-1,-1.0482634E0,-2.8881902E-1,-2.406114E0,-1.7873706E0,1.4555348E0,3.7595751E0,-1.7973452E0,6.9727397E-1,1.2662119E0,7.8592795E-1,-2.5175014E-1,-2.0056546E0,-2.850604E0,-3.812087E-1,-4.4490805E0,5.5951196E-1,-1.5336226E0,7.057959E-2,-4.923416E0,-3.1605076E-2,7.057959E-2,-2.6258166E0,1.9630443E0,-4.6709353E-1,-9.321765E-1,1.6140194E-1,1.9196867E0,1.8886207E0,-3.7004852E0,2.8620713E0,7.5529024E-2,-5.9787866E-2,1.1222996E-1,1.7027264E-2,-1.0264385E0,-1.6110364E0,3.2872388E-1,-3.451773E-1,-3.204732E-2,-3.14852E0,-4.5056218E-1,-2.130677E0,-3.451773E-1,2.6363816E0,-8.372983E-1,3.1177952E0,-1.394033E0,6.186929E-1,-4.48023E0,-4.321197E0,-1.4146161E0,-1.6812744E0,-7.07875E-1,-1.8204405E0,-1.4931569E0,-2.6258166E0,9.8495536E-2,-5.524019E0,1.1148056E-1,-8.08721E-2,-1.2052663E-1,-4.0860426E-2,-1.0175246E-1,-8.051678E-3,-2.1057218E-2,-9.261038E-2,1.0204966E-1,1.2070428E-2,1.16087E-2,1.1627855E-1,9.896802E-2,4.953317E-3,6.5357305E-2,-8.7735936E-2,-8.3000295E-2,1.04874365E-1,1.0473756E-1,4.8135437E-2,4.557129E-2,-6.5644376E-2,1.2954389E-1,-1.1389052E-1,-9.216963E-2,5.2025076E-2,-7.0780896E-2,-1.160448E-1,-3.544266E-2,9.602975E-2,4.84712E-2,-1.17499925E-1,1.4848134E-1,5.6598097E-2,4.1311085E-2,-1.0587555E-1,-1.9733569E-2,1.298108E-1,-2.4504788E-2,-1.2068921E-1,4.825446E-2,-1.9720525E-2,-9.821718E-2,7.2281264E-2,-1.1187479E-2,-1.1058185E-1],"split_indices":[2,8,1,7,2,6,0,5,5,3,1,7,1,4,5,7,5,8,3,6,0,3,6,2,4,7,5,3,4,7,6,0,0,0,0,2,5,1,7,0,1,4,6,7,6,8,8,5,2,0,3,3,3,0,8,3,6,0,4,0,0,0,0,0,0,0,0,0,0,0,0,0,0,0,0,0,0,0,0,0,0,0,0,0,0,0,0,0,0,0,0,0,0,0,0,0,0,0,0,0,0,0,0,0,0],"split_type":[0,0,0,0,0,0,0,0,0,0,0,0,0,0,0,0,0,0,0,0,0,0,0,0,0,0,0,0,0,0,0,0,0,0,0,0,0,0,0,0,0,0,0,0,0,0,0,0,0,0,0,0,0,0,0,0,0,0,0,0,0,0,0,0,0,0,0,0,0,0,0,0,0,0,0,0,0,0,0,0,0,0,0,0,0,0,0,0,0,0,0,0,0,0,0,0,0,0,0,0,0,0,0,0,0],"sum_hessian":[1.9807025E3,3.3941235E2,1.6412902E3,5.5206455E1,2.842059E2,4.8881656E2,1.1524736E3,1.2089513E1,4.3116943E1,1.15527985E2,1.686779E2,3.766231E2,1.1219343E2,1.0709927E3,8.148087E1,3.0905485E0,8.998964E0,3.380492E1,9.312023E0,1.14087616E2,1.4403683E0,8.825265E1,8.0425255E1,1.2771515E2,2.4890797E2,3.7876045E1,7.431739E1,6.835283E1,1.0026399E3,7.236786E1,9.113015E0,1.1928517E0,1.897697E0,7.910188E0,1.0887758E0,2.271582E1,1.1089098E1,2.4278026E0,6.8842206E0,1.1340183E0,1.129536E2,7.076953E1,1.748311E1,1.3432948E1,6.699231E1,1.1091465E2,1.6800499E1,6.2456818E1,1.8645116E2,3.5924385E0,3.4283607E1,5.4949425E1,1.936796E1,5.90724E1,9.280429E0,8.0907196E2,1.9356795E2,1.16476E0,7.1203094E1,7.549234E0,1.5637815E0,1.948058E1,3.2352412E0,4.4617887E0,6.62731E0,1.1113019E0,1.3165008E0,4.1176605E0,2.76656E0,1.8547078E0,1.1109889E2,2.6341217E1,4.4428318E1,1.465083E0,1.6018026E1,7.112958E0,6.31999E0,6.0530483E1,6.461825E0,1.5279465E1,9.5635185E1,1.271515E1,4.0853486E0,3.755218E1,2.4904634E1,5.3558E1,1.3289316E2,1.0493177E0,2.5431209E0,1.398545E0,3.288506E1,3.0698492E1,2.4250935E1,5.1397142E0,1.4228246E1,4.555725E0,5.4516674E1,1.0464088E0,8.234019E0,1.7327315E2,6.357988E2,2.1844944E1,1.7172299E2,2.188611E0,6.901449E1],"tree_param":{"num_deleted":"0","num_feature":"10","num_nodes":"105","size_leaf_vector":"1"}},{"base_weights":[-5.420743E-4,5.427583E-1,-1.1006443E-1,-3.2390168E-1,7.1266925E-1,-5.704255E-1,1.0742339E-2,6.483429E-1,-6.725628E-1,1.0720965E0,4.694895E-1,-2.2066472E-1,-8.5876244E-1,9.699658E-2,-5.4535514E-1,-2.8160593E-1,1.0306649E0,-9.1387254E-1,2.1143131E-1,1.0930831E0,-2.9903492E-2,1.01364695E-1,7.458598E-1,3.3467007E-1,-5.827839E-1,-3.945243E-1,-1.0125593E0,9.102528E-1,1.7880967E-2,-9.0947145E-1,4.295909E-1,7.283657E-2,-7.6316893E-1,1.8739669E-2,1.1096819E-1,-1.1160976E0,-4.597742E-1,9.797863E-2,-3.1767708E-1,-3.0240236E-2,1.1108929E0,6.9476676E-1,-3.0295873E-1,1.5690433E-2,8.840058E-1,5.544627E-1,-1.014314E0,-1.6574806E-1,-1.1314024E0,-8.289271E-1,1.0931064E0,-1.0645133E0,-2.3362191E-1,9.823179E-1,-6.4202815E-1,-4.8129186E-1,1.1072645E-1,-1.0304979E0,1.9307475E-1,1.11841E0,-5.667322E-1,-1.04173355E-1,-4.936403E-3,-1.2255144E-1,-3.8034037E-2,-1.0038002E-1,-2.3345253E-3,-9.8957404E-2,2.2181705E-2,2.571106E-2,1.1335466E-1,-4.3771364E-2,9.782947E-2,2.3587925E-2,-8.039292E-2,-1.0649691E-1,6.424719E-2,9.42683E-2,9.473312E-3,2.5505875E-4,1.0720395E-1,5.973799E-3,-1.17700316E-1,1.1215187E-2,-1.0059855E-1,-1.1913202E-1,-1.0204634E-2,9.889622E-2,-9.538378E-2,1.563239E-1,-8.088309E-2,-2.6186028E-2,-1.09516E-1,-1.0862827E-1,1.3232796E-1,1.1236932E-2,1.103724E-1,3.310513E-2,-9.74594E-2,-1.0806712E-1,1.8794974E-2,5.5508938E-2,-6.7712697E-3,-1.0804474E-1,8.680865E-2,1.320492E-1,-1.10257916E-1,-5.60017E-2,1.263825E-1,-1.1253776E-1,8.728447E-2],"categories":[],"categories_nodes":[],"categories_segments":[],"categories_sizes":[],"default_left":[0,0,0,0,0,0,0,0,0,0,0,0,0,0,0,0,0,0,0,0,0,0,0,0,0,0,0,0,0,0,0,0,0,0,0,0,0,0,0,0,0,0,0,0,0,0,0,0,0,0,0,0,0,0,0,0,0,0,0,0,0,0,0,0,0,0,0,0,0,0,0,0,0,0,0,0,0,0,0,0,0,0,0,0,0,0,0,0,0,0,0,0,0,0,0,0,0,0,0,0,0,0,0,0,0,0,0,0,0,0,0],"id":12,"left_children":[1,3,5,7,9,11,13,15,17,19,21,23,25,27,29,31,33,35,37,39,-1,41,43,45,47,49,51,53,55,57,59,-1,61,-1,-1,63,65,-1,67,-1,69,71,73,75,77,79,81,83,85,87,89,91,93,95,97,99,101,103,105,107,109,-1,-1,-1,-1,-1,-1,-1,-1,-1,-1,-1,-1,-1,-1,-1,-1,-1,-1,-1,-1,-1,-1,-1,-1,-1,-1,-1,-1,-1,-1,-1,-1,-1,-1,-1,-1,-1,-1,-1,-1,-1,-1,-1,-1,-1,-1,-1,-1,-1,-1],"loss_changes":[1.15217606E2,4.8066742E1,8.962708E1,1.8719448E1,2.3263489E1,3.3594025E1,6.1327705E1,5.5329866E0,8.766411E0,3.4620056E0,1.660587E1,3.0906254E1,1.2685913E1,7.119544E1,6.133891E1,3.0273414E0,5.026417E-1,2.403328E0,4.1451383E0,3.0082245E0,0E0,1.7357468E1,9.417076E0,1.8622927E1,2.1045668E1,3.14376E1,5.2966614E0,1.1605179E1,4.684771E1,1.6921806E1,3.3139393E1,0E0,7.298646E-1,0E0,0E0,1.246481E0,2.7037249E0,0E0,2.5175993E0,0E0,1.7661285E0,9.82509E0,1.18516865E1,1.1449115E1,3.5509872E0,1.514435E1,1.6233053E0,1.2697898E1,2.3398209E0,9.37595E0,1.119794E1,2.8662415E0,1.4512414E1,9.81955E0,1.9268606E0,6.379553E1,6.7605515E1,1.1662216E1,2.0793648E1,7.624672E0,1.7086143E1,0E0,0E0,0E0,0E0,0E0,0E0,0E0,0E0,0E0,0E0,0E0,0E0,0E0,0E0,0E0,0E0,0E0,0E0,0E0,0E0,0E0,0E0,0E0,0E0,0E0,0E0,0E0,0E0,0E0,0E0,0E0,0E0,0E0,0E0,0E0,0E0,0E0,0E0,0E0,0E0,0E0,0E0,0E0,0E0,0E0,0E0,0E0,0E0,0E0,0E0],"parents":[2147483647,0,0,1,1,2,2,3,3,4,4,5,5,6,6,7,7,8,8,9,9,10,10,11,11,12,12,13,13,14,14,15,15,16,16,17,17,18,18,19,19,21,21,22,22,23,23,24,24,25,25,26,26,27,27,28,28,29,29,30,30,32,32,35,35,36,36,38,38,40,40,41,41,42,42,43,43,44,44,45,45,46,46,47,47,48,48,49,49,50,50,51,51,52,52,53,53,54,54,55,55,56,56,57,57,58,58,59,59,60,60],"right_children":[2,4,6,8,10,12,14,16,18,20,22,24,26,28,30,32,34,36,38,40,-1,42,44,46,48,50,52,54,56,58,60,-1,62,-1,-1,64,66,-1,68,-1,70,72,74,76,78,80,82,84,86,88,90,92,94,96,98,100,102,104,106,108,110,-1,-1,-1,-1,-1,-1,-1,-1,-1,-1,-1,-1,-1,-1,-1,-1,-1,-1,-1,-1,-1,-1,-1,-1,-1,-1,-1,-1,-1,-1,-1,-1,-1,-1,-1,-1,-1,-1,-1,-1,-1,-1,-1,-1,-1,-1,-1,-1,-1,-1],"split_conditions":[-8.391457E-1,-1.0482634E0,-7.681571E-1,-2.0334058E0,-1.7873706E0,4.4892165E-1,1.681969E0,-1.7973452E0,6.9727397E-1,1.2662119E0,4.5709956E-1,7.727507E-1,6.186929E-1,-2.34788E0,-1.7329296E0,-4.4490805E0,-2.7927294E0,-1.5336226E0,1.1268007E0,-4.923416E0,-2.9903492E-2,-1.4566015E0,-2.6258166E0,2.2376728E0,-7.079623E-1,9.5597565E-1,3.0158365E0,4.6288257E0,-2.3106778E0,-2.5605088E-1,-2.0230098E-1,7.283657E-2,4.212857E-1,1.8739669E-2,1.1096819E-1,-1.0264385E0,5.5580124E-2,9.797863E-2,7.057959E-2,-3.0240236E-2,-2.4874203E0,5.710529E-1,2.2211455E-2,-1.366069E0,4.6373934E-1,3.3686092E-1,-2.873159E0,-6.280661E-1,3.3088176E0,-3.2016866E0,-5.06293E-1,-3.695972E0,-2.855124E0,-7.07875E-1,-5.1132464E-1,-7.4997413E-1,-1.4146161E0,3.8917155E0,1.4302272E0,-2.797926E0,9.7510934E-1,-1.04173355E-1,-4.936403E-3,-1.2255144E-1,-3.8034037E-2,-1.0038002E-1,-2.3345253E-3,-9.8957404E-2,2.2181705E-2,2.571106E-2,1.1335466E-1,-4.3771364E-2,9.782947E-2,2.3587925E-2,-8.039292E-2,-1.0649691E-1,6.424719E-2,9.42683E-2,9.473312E-3,2.5505875E-4,1.0720395E-1,5.973799E-3,-1.17700316E-1,1.1215187E-2,-1.0059855E-1,-1.1913202E-1,-1.0204634E-2,9.889622E-2,-9.538378E-2,1.563239E-1,-8.088309E-2,-2.6186028E-2,-1.09516E-1,-1.0862827E-1,1.3232796E-1,1.1236932E-2,1.103724E-1,3.310513E-2,-9.74594E-2,-1.0806712E-1,1.8794974E-2,5.5508938E-2,-6.7712697E-3,-1.0804474E-1,8.680865E-2,1.320492E-1,-1.10257916E-1,-5.60017E-2,1.263825E-1,-1.1253776E-1,8.728447E-2],"split_indices":[2,8,1,7,2,7,3,5,5,3,1,8,2,4,9,7,2,8,4,6,0,3,6,3,5,8,6,0,6,4,7,0,1,0,0,2,3,0,3,0,1,8,6,7,3,2,7,3,6,6,3,3,1,0,6,0,3,2,8,5,5,0,0,0,0,0,0,0,0,0,0,0,0,0,0,0,0,0,0,0,0,0,0,0,0,0,0,0,0,0,0,0,0,0,0,0,0,0,0,0,0,0,0,0,0,0,0,0,0,0,0],"split_type":[0,0,0,0,0,0,0,0,0,0,0,0,0,0,0,0,0,0,0,0,0,0,0,0,0,0,0,0,0,0,0,0,0,0,0,0,0,0,0,0,0,0,0,0,0,0,0,0,0,0,0,0,0,0,0,0,0,0,0,0,0,0,0,0,0,0,0,0,0,0,0,0,0,0,0,0,0,0,0,0,0,0,0,0,0,0,0,0,0,0,0,0,0,0,0,0,0,0,0,0,0,0,0,0,0,0,0,0,0,0,0],"sum_hessian":[1.9343114E3,3.2385074E2,1.6104607E3,5.293589E1,2.7091486E2,3.3399118E2,1.2764695E3,1.3745873E1,3.9190014E1,1.0795109E2,1.6296376E2,1.5171812E2,1.8227304E2,1.1057814E3,1.7068811E2,4.0815244E0,9.664349E0,3.0759571E1,8.430446E0,1.06523415E2,1.4276683E0,7.046768E1,9.249608E1,5.9913074E1,9.1805046E1,4.6245487E1,1.3602756E2,9.710463E1,1.0086767E3,1.243237E2,4.6364418E1,1.1523088E0,2.9292157E0,1.1168582E0,8.547491E0,2.0273346E1,1.0486225E1,3.090601E0,5.339844E0,1.1409929E0,1.0538242E2,2.8265581E1,4.2202103E1,1.4892971E1,7.76031E1,5.2025448E1,7.88763E0,5.2897095E1,3.8907948E1,3.6136158E1,1.0109327E1,1.27178314E2,8.849244E0,9.314741E1,3.9572182E0,1.5753337E2,8.511434E2,1.12085434E2,1.2238267E1,2.734004E1,1.9024378E1,1.7765156E0,1.1527001E0,1.706927E1,3.2040768E0,4.0890417E0,6.397183E0,2.0065649E0,3.3332794E0,3.0430808E0,1.0233935E2,5.5507407E0,2.2714842E1,2.058754E1,2.1614563E1,5.2104E0,9.682571E0,7.205214E1,5.5509667E0,2.5663933E1,2.6361513E1,1.1208345E0,6.7667956E0,4.0401302E1,1.2495794E1,3.6619045E1,2.2889037E0,1.8785973E0,3.425756E1,8.248495E0,1.860833E0,5.0283194E0,1.22149994E2,5.9131155E0,2.9361284E0,1.1643096E1,8.150432E1,1.0091176E0,2.9481003E0,8.2780014E1,7.475336E1,2.432565E2,6.0788684E2,1.0963206E2,2.4533732E0,6.533741E0,5.7045255E0,1.9524981E0,2.538754E1,1.3862949E1,5.161428E0],"tree_param":{"num_deleted":"0","num_feature":"10","num_nodes":"111","size_leaf_vector":"1"}},{"base_weights":[-7.164679E-4,-3.325859E-1,1.5943974E-1,1.2677248E-1,-5.721078E-1,4.460611E-1,-9.102741E-2,4.9938437E-1,-2.703868E-1,-3.4668607E-1,-8.964529E-1,1.5913698E-1,7.636283E-1,-3.1434545E-1,3.410031E-1,6.9260174E-1,-8.0210704E-1,4.864565E-1,-8.456574E-1,-1.8846445E-1,-1.058954E0,-1.14507146E-1,-9.845566E-1,7.101508E-1,-1.7116308E-1,-2.1105821E-1,8.584747E-1,-1.1905603E0,-2.154179E-1,8.718013E-1,-3.3184218E-1,1.7826742E-1,9.1359526E-1,3.5875073E-1,-1.3325462E0,-3.2769182E-1,1.0648544E0,-1.067228E0,1.0432956E0,3.2992572E-1,-5.0730586E-1,-1.1852856E0,-2.662528E-1,-8.487494E-1,8.322023E-1,-1.0589768E0,-2.3543873E-1,-4.8728102E-1,9.3568283E-1,-4.861999E-1,1.5590054E-1,-8.8466245E-1,8.939059E-1,3.014147E-1,9.6981114E-1,-1.2879556E0,4.165995E-1,8.155847E-1,-3.7389064E-1,-9.572802E-1,1.0630972E0,5.8343846E-1,-8.3699286E-1,9.371295E-2,-1.4917778E-2,-2.316914E-2,9.483197E-2,-7.4291214E-2,8.14385E-2,-1.9566026E-2,-1.4403255E-1,-1.0123483E-1,5.0465327E-2,3.5528835E-2,1.280844E-1,1.7038653E-2,-1.12903394E-1,1.2659661E-1,-7.572611E-3,1.2563364E-1,-1.4259346E-2,-8.8749215E-2,1.0746217E-2,-1.2542088E-1,5.2577414E-2,8.0536686E-2,-8.722519E-2,3.023933E-3,-1.002689E-1,1.1203193E-1,-3.3110566E-2,-4.4672754E-2,-1.11210264E-1,-1.0141522E-1,1.376246E-1,5.3743046E-2,-1.3316295E-1,-7.5601205E-2,1.0644571E-1,1.8723741E-2,-9.532718E-2,-7.62854E-2,4.330119E-2,-1.3862836E-1,2.067172E-2,-8.8752E-2,1.2826231E-1,-8.760732E-2,1.0162999E-1,3.1168098E-2,1.0856229E-1,8.961762E-3,-1.3687631E-1,9.295997E-2,-2.9449765E-2,-7.2637135E-3,1.0342276E-1,-1.4238985E-2,-7.111617E-2,-1.3278954E-1,1.1537588E-1,1.2150349E-1,-1.1417735E-3,-4.48407E-2,9.9463314E-2,-1.2707852E-1,1.4429194E-2],"categories":[],"categories_nodes":[],"categories_segments":[],"categories_sizes":[],"default_left":[0,0,0,0,0,0,0,0,0,0,0,0,0,0,0,0,0,0,0,0,0,0,0,0,0,0,0,0,0,0,0,0,0,0,0,0,0,0,0,0,0,0,0,0,0,0,0,0,0,0,0,0,0,0,0,0,0,0,0,0,0,0,0,0,0,0,0,0,0,0,0,0,0,0,0,0,0,0,0,0,0,0,0,0,0,0,0,0,0,0,0,0,0,0,0,0,0,0,0,0,0,0,0,0,0,0,0,0,0,0,0,0,0,0,0,0,0,0,0,0,0,0,0,0,0,0,0],"id":13,"left_children":[1,3,5,7,9,11,13,15,17,19,21,23,25,27,29,31,33,35,37,39,41,43,45,47,49,51,53,55,57,59,61,63,65,67,69,71,73,75,77,79,81,83,85,87,89,91,93,95,97,99,101,103,105,107,109,111,113,115,117,119,121,123,125,-1,-1,-1,-1,-1,-1,-1,-1,-1,-1,-1,-1,-1,-1,-1,-1,-1,-1,-1,-1,-1,-1,-1,-1,-1,-1,-1,-1,-1,-1,-1,-1,-1,-1,-1,-1,-1,-1,-1,-1,-1,-1,-1,-1,-1,-1,-1,-1,-1,-1,-1,-1,-1,-1,-1,-1,-1,-1,-1,-1,-1,-1,-1,-1],"loss_changes":[1.0050144E2,6.7792E1,9.159962E1,3.1472406E1,2.9280457E1,5.4087677E1,6.585365E1,2.81185E1,4.5322567E1,2.6893246E1,1.127652E1,5.7235073E1,2.6262436E1,3.872936E1,8.339415E1,1.074609E1,9.487919E0,2.1624596E1,2.5794952E1,3.2881386E1,4.0386467E0,1.31296425E1,8.026535E0,3.2270176E1,2.037473E1,2.0010044E1,1.5665955E1,7.644066E0,6.653357E1,4.6627403E1,4.826801E1,7.615868E0,2.8798409E0,3.3039794E0,9.747696E-1,1.1640796E1,3.6292953E0,4.267433E0,1.7644944E0,3.343987E1,2.8830648E1,5.048088E0,5.4213777E0,1.4593081E0,3.1567273E0,3.8859863E0,1.9845469E1,1.743933E1,2.2475174E1,3.1818699E1,2.5131979E1,9.344109E0,8.254821E0,3.818972E1,1.5972015E1,4.915657E0,1.4958429E0,1.0624046E1,2.7384907E1,1.1600065E1,